tree
version=v4
num_class=1
num_tree_per_iteration=1
label_index=0
max_feature_idx=50
objective=regression
feature_names=latitude longitude sog cog_sin cog_cos heading_sin heading_cos elapsed_time day_of_week_1 day_of_week_2 day_of_week_3 day_of_week_4 day_of_week_5 day_of_week_6 hour_of_day_1 hour_of_day_2 hour_of_day_3 hour_of_day_4 hour_of_day_5 hour_of_day_6 hour_of_day_7 hour_of_day_8 hour_of_day_9 hour_of_day_10 hour_of_day_11 hour_of_day_12 hour_of_day_13 hour_of_day_14 hour_of_day_15 hour_of_day_16 hour_of_day_17 hour_of_day_18 hour_of_day_19 hour_of_day_20 hour_of_day_21 hour_of_day_22 hour_of_day_23 navstat_0 navstat_1 navstat_2 navstat_3 navstat_4 navstat_5 navstat_6 navstat_7 navstat_9 navstat_11 navstat_12 navstat_13 navstat_14 navstat_15
feature_infos=[-43.611559999999997:70.554929999999999] [-167.27744000000001:178.73014000000001] [0:24.800000000000001] [-1:1] [-1:1] [-1:1] [-1:1] [1704067957:1715126347] [0:1] [0:1] [0:1] [0:1] [0:1] [0:1] [0:1] [0:1] [0:1] [0:1] [0:1] [0:1] [0:1] [0:1] [0:1] [0:1] [0:1] [0:1] [0:1] [0:1] [0:1] [0:1] [0:1] [0:1] [0:1] [0:1] [0:1] [0:1] [0:1] [0:1] [0:1] [0:1] [0:1] [0:1] [0:1] [0:1] none none none none none none [0:1]
tree_sizes=2954 2978 2973 2964 2982 2963 2962 2962 2974 2945 2940 2948 2949 2964 2950 2953 2951 2954 2954 2956 2975 2951 2962 2961 2966 2982 2973 2988 2985 2973 2972 2995 3000 2983 3003 2956 2945 2932 2947 2936 2974 2953 2969 2943 2940 2925 2968 2952 2996 2974 2947 2932 2931 2950 2954 2947 2962 2974 2934 2963 2925 2954 2951 2967 2913 2908 2980 2898 2951 2965 2966 2955 2896 2941 2905 2837 2959 2914 2926 2908 2953 2900 2944 2927 2924 2880 2868 2951 2896 2879 2942 2846 2943 2934 2892 2952 2910 2880 2884 2903 2926 2933 2865 2939 2877 2807 2863 2907 2898 2896 2786 2891 2929 2917 2853 2864 2888 2910 2872 2852 2877 2815 2915 2883 2881 2910 2936 2915 2949 2789 2875 2832 2844 2947 2913 2878 2804 2865 2894 2817 2876 2882 2838 2889 2896 2859 2827 2890 2875 2856 2890 2861 2895 2889 2872 2824 2864 2854 2854 2826 2848 2868 2857 2822 2830 2878 2811 2868 2955 2900 2852 2940 2889 2978 2887 2885 2823 2874 2915 2918 2908 2864 2873 2911 2880 2866 2838 2942 2893 2861 2888 2916 2874 2923 2888 2909 2877 2829 2892 2871 2876 2858 2927 2879 2891 2892 2860 2889 2910 2879 2832 2907 2849 2889 2867 2928 2925 2951 2880 2828 2792 2876 2823 2871 2849 2811 2903 2925 2869 2875 2819 2820 2845 2899 2900 2945 2872 2894 2885 2880 2877 2829 2888 2866 2878 2895 2823 2886 2836 2948 2867 2888 2896 2856 2885 2804 2890 2925 2915 2817 2869 2816 2887 2885 2832 2971 2907 2830 2852 2877 2988 2887 2823 2849 2894 2872 2909 2870 2931 2840 2934 2866 2952 2891 2901 2849 2864 2868 2875 2909 2822 2848 2904 2850 2855 2880 2879 2894 2913 2872 2831 2864 2899 2939 2865 2927 2845 2843 2852 2840 2904 2887 2945 2867 2841 2926 2904 2787 2916 2847 2825 2842 2846 2957 2869 2809 2829 2886 2866 2846 2873 3078 2848 2837 2822 2835 2882 2947 2820 2870 2811 2926 2889 2849 2936 2875 2849 2941 2926 2942 2914 2811 2866 2882 2834 2961 2878 2915 2810 2869 2907 2845 2884 2847 2841 2827 2884 2775 2854 2860 2862 2891 2930 2927 2943 2823 2889 2844 2919 2909 2885 2894 2892 2859 2921 2883 2855 2867 2888 2869 2894 2900 2925 2806 2975 2938 2787 2932 2918 2891 2860 2901 2878 2795 2874 2871 2804 2859 2881 2843 2855 2814 2879 2830 2835 2823 2843 2871 2824 2866 2924 2877 2817 2879 2915 2943 2816 2886 2863 2832 2913 2838 2874 2891 2921 2883 2881 2883 2831 2853 2909 2860 2927 2862 2968 2918 2782 2949 2833 2871 2908 2868 2868 2861 2892 2896 2879 2812 2854 2904 2914 2941 2950 2877 2861 2934 2874 2850 2907 2869 2906 2874 2892 2840 2847 2829 2789 2895 3016 2921 2863 2834 2883 2832 2897 2845 2918 2930 2988 3038 2854 2911 2857 3047 2815 2983 2937 2921 2954 2847

Tree=0
num_leaves=31
num_cat=0
split_feature=1 1 1 1 1 1 1 1 1 1 1 1 1 1 1 1 1 1 1 1 1 1 1 0 0 1 1 1 1 1
split_gain=3.2831e+09 1.48389e+09 9.44872e+07 6.5745e+07 5.22273e+07 2.54124e+07 1.64768e+07 1.26429e+07 8.02755e+06 5.37514e+06 5.25348e+06 5.1934e+06 2.87413e+06 2.75431e+06 2.67701e+06 1.90617e+06 1.87536e+06 1.28831e+06 1.08851e+06 948738 841984 753826 703693 699644 673957 545139 493671 470707 405289 350986
threshold=55.450150000000008 -43.210334999999993 -99.545079999999999 16.984635000000004 125.17733500000001 1.6541750000000002 31.220410000000005 146.836555 -69.877334999999988 100.61114500000001 7.3852100000000007 -7.0098249999999984 134.26661500000003 172.82877500000004 106.87113500000002 -19.632174999999997 -110.32727499999999 -81.538044999999983 -57.109699999999997 51.56116500000001 11.595550000000001 -2.0947099999999996 21.666765000000002 22.058625000000003 22.853050000000003 -12.642799999999999 -76.592434999999981 -122.36336499999999 141.11070000000004 -122.13604499999998
decision_type=2 2 2 2 2 2 2 2 2 2 2 2 2 2 2 2 2 2 2 2 2 2 2 2 2 2 2 2 2 2
left_child=1 2 16 5 9 11 22 12 17 24 -7 15 -6 -9 -11 -3 23 -4 -10 -8 -12 -13 -5 27 -2 -17 -19 -1 -14 -25
right_child=4 3 8 6 7 10 19 13 18 14 20 21 28 -15 -16 25 -18 26 -20 -21 -22 -23 -24 29 -26 -27 -28 -29 -30 -31
leaf_value=-5.6465642317478668 18.279640803233747 6.8522558615855527 1.097168364967553 11.94834823328568 22.852227460369111 10.463172985674239 13.932582483251593 25.4013760830641 3.7962472516398096 20.422616300912726 11.032092659115305 9.6602181283812012 23.902791903250503 27.526223967622855 21.75351717901923 8.5197541020531435 -0.58962736885472111 2.0783398247062159 5.3610843202928997 15.547814479873853 11.428501878892064 10.058457861705346 12.607286112829932 -2.2499201084346563 15.683719212242089 9.1710710587724815 2.5675513429999235 -1.1749255333235329 24.527328512529476 -1.7313034869965289
leaf_weight=923 2913 4502 8897 25940 30551 172515 4343 21993 9118 35311 125822 93202 53958 8442 26422 18078 8683 35557 8674 22352 93324 97000 43192 47491 1523 44441 49127 316 12869 17994
leaf_count=923 2913 4502 8897 25940 30551 172515 4343 21993 9118 35311 125822 93202 53958 8442 26422 18078 8683 35557 8674 22352 93324 97000 43192 47491 1523 44441 49127 316 12869 17994
internal_value=11.1957 8.73102 0.761358 10.7299 23.0311 10.3688 13.1749 24.2117 2.61206 20.7506 10.876 9.59659 23.6557 25.9908 20.9922 8.83963 -1.97206 2.24188 4.55914 15.285 11.2009 9.86331 12.36 -2.15196 17.3884 8.98274 2.36214 -4.5061 24.0231 -2.10741
internal_weight=0 931491 186780 744711 193982 648884 95827 127813 111373 66169 391661 257223 97378 30435 61733 67021 75407 93581 17792 26695 219146 190202 69132 66724 4436 62519 84684 1239 66827 65485
internal_count=1125473 931491 186780 744711 193982 648884 95827 127813 111373 66169 391661 257223 97378 30435 61733 67021 75407 93581 17792 26695 219146 190202 69132 66724 4436 62519 84684 1239 66827 65485
is_linear=0
shrinkage=1


Tree=1
num_leaves=31
num_cat=0
split_feature=1 1 1 1 1 1 1 1 1 1 1 1 1 1 1 1 1 1 1 0 1 1 1 1 0 1 1 1 0 0
split_gain=2.65931e+09 1.20195e+09 7.65347e+07 5.32557e+07 4.23041e+07 2.02027e+07 1.39207e+07 1.02407e+07 6.50232e+06 4.50101e+06 4.35386e+06 3.92317e+06 2.32804e+06 2.23099e+06 2.16838e+06 1.54304e+06 1.49801e+06 1.08865e+06 881693 878129 768478 742471 690967 559279 545905 518154 403952 350211 340418 309408
threshold=55.450150000000008 -43.210334999999993 -99.545079999999999 15.939900000000002 125.17733500000001 1.1349500000000001 31.220410000000005 146.836555 -69.877334999999988 6.7216950000000013 100.61114500000001 -7.6078849999999987 134.26661500000003 172.82877500000004 106.87113500000002 -117.55514999999998 -19.632174999999997 -93.936534999999978 -57.109699999999997 22.058625000000003 51.56116500000001 11.007870000000002 22.904445000000006 -3.0195549999999995 22.853050000000003 -76.592434999999981 -12.642799999999999 139.56881000000004 10.290410000000001 -39.397334999999991
decision_type=2 2 2 2 2 2 2 2 2 2 2 2 2 2 2 2 2 2 2 2 2 2 2 2 2 2 2 2 2 2
left_child=1 2 15 5 10 11 22 12 17 -7 24 16 -6 29 -12 19 -3 -4 -10 -1 -8 -11 -5 -13 28 -19 -18 -14 -2 -9
right_child=4 3 8 6 7 9 20 13 18 21 14 23 27 -15 -16 -17 26 25 -20 -21 -22 -23 -24 -25 -26 -27 -28 -29 -30 -31
leaf_value=-15.08993772747408 5.7389621404823314 -3.9091257588908919 -9.6013736546367685 0.68857073155580872 10.490849171694336 -0.709613601325637 2.4631681533170524 14.723157744323579 -6.6595333042885292 -0.18267843970965528 8.3041991328434204 -1.4429015397537093 11.26459447140965 14.697444555901207 9.5020098009889846 -10.879684861160461 -2.4083773203293877 -8.2498253504213235 -5.2511800944544023 -12.014880120735489 3.9168770939090383 0.17962485196465644 1.3025151855719266 -1.086356509177786 4.0391912043290317 -7.7653593858603989 -1.8391606453870428 11.731758346306187 8.2113571172078448 12.712492156432504
leaf_weight=943 2163 4502 4360 34509 30551 168271 4343 794 9118 134543 35311 75174 26773 8442 26422 13440 18078 40094 8674 61024 22352 97592 39104 106072 1523 49127 40171 40054 750 21199
leaf_count=943 2163 4502 4360 34509 30551 168271 4343 794 9118 134543 35311 75174 26773 8442 26422 13440 18078 40094 8674 61024 22352 97592 39104 106072 1523 49127 40171 40054 750 21199
internal_value=0 -2.21824 -9.39093 -0.419266 10.6519 -0.752906 1.72412 11.7144 -7.7253 -0.315818 8.59942 -1.47018 11.214 13.3155 8.81687 -11.851 -2.15165 -8.05847 -5.97293 -12.0617 3.68037 -0.0303623 1.0147 -1.23424 5.5734 -7.98307 -2.01582 11.5446 6.37552 12.7851
internal_weight=0 931491 186780 744711 193982 644403 100308 127813 111373 400406 66169 243997 97378 30435 61733 75407 62751 93581 17792 61967 26695 232135 73613 181246 4436 89221 58249 66827 2913 21993
internal_count=1125473 931491 186780 744711 193982 644403 100308 127813 111373 400406 66169 243997 97378 30435 61733 75407 62751 93581 17792 61967 26695 232135 73613 181246 4436 89221 58249 66827 2913 21993
is_linear=0
shrinkage=0.1


Tree=2
num_leaves=31
num_cat=0
split_feature=1 1 1 1 1 1 1 1 1 1 1 1 1 1 1 1 1 1 1 1 1 1 1 0 0 1 1 1 1 0
split_gain=2.15404e+09 9.73578e+08 6.19931e+07 4.31731e+07 3.42663e+07 1.67787e+07 1.07994e+07 8.29499e+06 5.2803e+06 3.85407e+06 3.52663e+06 2.85382e+06 1.88571e+06 1.8071e+06 1.75639e+06 1.29112e+06 1.24846e+06 962834 693362 622467 529513 524272 514632 459616 442183 354810 310209 309923 301766 275739
threshold=55.450150000000008 -43.210334999999993 -99.545079999999999 16.984635000000004 125.17733500000001 2.3945450000000004 31.220410000000005 146.836555 -63.463889999999999 -7.0098249999999984 100.61114500000001 8.1952450000000017 134.26661500000003 172.82877500000004 106.87113500000002 -110.32727499999999 -19.632174999999997 -81.538044999999983 -1.4280749999999998 51.56116500000001 25.203635000000002 -75.302694999999986 12.305590000000002 22.058625000000003 22.853050000000003 -12.642799999999999 -122.36336499999999 -57.109699999999997 141.11070000000004 10.290410000000001
decision_type=2 2 2 2 2 2 2 2 2 2 2 2 2 2 2 2 2 2 2 2 2 2 2 2 2 2 2 2 2 2
left_child=1 2 15 5 10 9 20 12 17 16 24 -7 -6 -9 -12 23 -3 -4 -11 -8 -5 -19 -13 26 29 -18 -1 -10 -14 -2
right_child=4 3 8 6 7 11 19 13 27 18 14 22 28 -15 -16 -17 25 21 -20 -21 -22 -23 -24 -25 -26 -27 -28 -29 -30 -31
leaf_value=-13.649071060461702 5.1650657466865511 -3.5182131584248824 -8.1974886878469064 0.81255138811641514 9.4417639360986314 -0.54751741891460004 2.2168513432862214 11.50657382861538 -5.7454002047235413 -1.2315182722241138 7.47377921096842 -0.093922677710332358 10.28636045288733 13.227701208733237 8.5518091479128131 -9.5188515742775426 -2.167539650956829 -7.2659102907918669 -0.87302309662661581 3.5251893192508348 1.5256933036794045 -6.7379198740432802 0.23665261686014027 -10.779074132470328 3.635271984358329 -1.6420833443246619 -10.018972942497157 -4.7260622203088944 10.825263425758997 7.3902214055379236
leaf_weight=923 2163 4502 8897 56361 30551 155030 4343 21993 4546 102079 35311 139142 53958 8442 26422 8683 18078 62322 114426 22352 12771 26934 71186 65485 1523 44441 316 8674 12869 750
leaf_count=923 2163 4502 8897 56361 30551 155030 4343 21993 4546 102079 35311 139142 53958 8442 26422 8683 18078 62322 114426 22352 12771 26934 71186 65485 1523 44441 316 8674 12869 750
internal_value=0 -1.99642 -8.45184 -0.377339 9.58668 -0.669938 1.60397 10.543 -6.95277 -1.24718 7.73948 -0.221985 10.0926 11.984 7.93518 -10.6659 -1.90984 -7.20547 -1.04205 3.31234 0.944293 -7.10658 0.0179613 -10.8152 5.01606 -1.79402 -12.7232 -5.07658 10.3901 5.73797
internal_weight=0 931491 186780 744711 193982 648884 95827 127813 111373 283526 66169 365358 97378 30435 61733 75407 67021 98153 216505 26695 69132 89256 210328 66724 4436 62519 1239 13220 66827 2913
internal_count=1125473 931491 186780 744711 193982 648884 95827 127813 111373 283526 66169 365358 97378 30435 61733 75407 67021 98153 216505 26695 69132 89256 210328 66724 4436 62519 1239 13220 66827 2913
is_linear=0
shrinkage=0.1


Tree=3
num_leaves=31
num_cat=0
split_feature=1 1 1 1 1 1 1 1 1 1 1 1 1 1 1 1 1 1 1 0 0 1 1 1 0 1 1 0 0 1
split_gain=1.74477e+09 7.88598e+08 5.02144e+07 3.5037e+07 2.77557e+07 1.28116e+07 9.81986e+06 6.71894e+06 4.34338e+06 2.94405e+06 2.85657e+06 2.46047e+06 1.52743e+06 1.46375e+06 1.42267e+06 1.05305e+06 836016 763009 651855 633712 574963 553452 504198 437914 358168 355781 262809 250620 223349 196869
threshold=55.450150000000008 -43.210334999999993 -99.545079999999999 15.405305000000002 125.17733500000001 0.64534500000000017 31.220410000000005 146.836555 -69.877334999999988 5.8883850000000004 100.61114500000001 -10.091415 134.26661500000003 172.82877500000004 106.87113500000002 -117.55514999999998 -4.5793199999999992 -93.936534999999978 21.666765000000002 7.0418900000000013 22.058625000000003 -57.109699999999997 51.56116500000001 10.114295000000002 22.853050000000003 -76.592434999999981 137.85811000000004 -39.397334999999991 10.290410000000001 25.203635000000002
decision_type=2 2 2 2 2 2 2 2 2 2 2 2 2 2 2 2 2 2 2 2 2 2 2 2 2 2 2 2 2 2
left_child=1 2 15 5 10 11 18 12 17 -7 24 19 -6 27 -12 20 -13 -4 -5 -3 -1 -10 -8 -11 28 -19 -14 -9 -2 -20
right_child=4 3 8 6 7 9 22 13 21 23 14 16 26 -15 -16 -17 -18 25 29 -21 -22 -23 -24 -25 -26 -27 -28 -29 -30 -31
leaf_value=-12.223735414507027 4.6485591728820657 -4.018021153181027 -7.8214877903789564 0.48147963775391611 8.4975874529443356 -0.59128085348218629 1.9951662154508414 12.100184871567889 -5.369272437224291 -0.2031413675959137 6.7264014338688103 -1.3601005078107928 9.0699270524844167 11.904930517815266 7.6966280260866418 -8.7969004439172291 -0.94316821514721905 -6.6877104865349271 0.90529065156593502 -1.9881020391724284 -9.7354846580402352 -4.2534559428430745 3.1726703856361707 0.076984851439718047 3.2717450678544227 -6.2862661510820601 9.4909791377240875 10.290585264346923 6.6511993408203125 1.3731240097035744
leaf_weight=943 2163 1638 4360 39487 30551 172900 4343 794 9118 98141 35311 75438 22197 8442 26422 13440 132678 40094 30421 25172 61024 8674 22352 129370 1523 49127 44630 21199 750 12771
leaf_count=943 2163 1638 4360 39487 30551 172900 4343 794 9118 98141 35311 75438 22197 8442 26422 13440 132678 40094 30421 25172 61024 8674 22352 129370 1523 49127 44630 21199 750 12771
internal_value=0 -1.79677 -7.60666 -0.339605 8.62801 -0.624198 1.31355 9.48868 -6.25749 -0.280236 6.96553 -1.21045 9.08334 10.7856 7.14166 -9.59931 -1.0943 -6.52979 0.775145 -2.11212 -9.77335 -4.82529 2.9811 -0.0438527 4.51445 -6.46667 9.35112 10.3559 5.16417 1.04362
internal_weight=0 931491 186780 744711 193982 635337 109374 127813 111373 400411 66169 234926 97378 30435 61733 75407 208116 93581 82679 26810 61967 17792 26695 227511 4436 89221 66827 21993 2913 43192
internal_count=1125473 931491 186780 744711 193982 635337 109374 127813 111373 400411 66169 234926 97378 30435 61733 75407 208116 93581 82679 26810 61967 17792 26695 227511 4436 89221 66827 21993 2913 43192
is_linear=0
shrinkage=0.1


Tree=4
num_leaves=31
num_cat=0
split_feature=1 1 1 1 1 1 1 1 1 1 1 1 1 1 1 1 1 1 1 0 1 1 1 0 0 0 0 0 1 1
split_gain=1.41327e+09 6.38799e+08 3.7894e+07 2.91171e+07 2.25676e+07 1.1519e+07 8.21367e+06 5.77037e+06 3.70115e+06 3.00955e+06 2.15026e+06 1.98798e+06 1.5321e+06 1.1921e+06 984894 902668 802545 618038 583614 442260 408400 333634 291674 290116 270115 250381 218440 193648 193333 181500
threshold=55.450150000000008 -46.300314999999991 -99.545079999999999 14.793380000000001 121.15047000000001 -0.58282999999999985 31.220410000000005 144.61744000000002 -19.632174999999997 5.8883850000000004 100.61114500000001 -69.877334999999988 172.82877500000004 129.51477000000003 -8.3265949999999975 -118.97020499999998 106.87113500000002 -93.936534999999978 21.666765000000002 24.326365000000003 51.56116500000001 10.377305000000002 -79.478114999999988 22.853050000000003 25.602475000000002 -20.932664999999997 -39.397334999999991 7.0418900000000013 2.8350750000000002 -14.681559999999999
decision_type=2 2 2 2 2 2 2 2 2 2 2 2 2 2 2 2 2 2 2 2 2 2 2 2 2 2 2 2 2 2
left_child=1 2 15 5 10 8 18 13 25 28 23 17 26 -6 29 19 -12 -4 -5 -1 -8 -11 -19 -2 -17 -3 -9 -13 -7 -10
right_child=4 3 11 6 7 9 20 12 14 21 16 27 -14 -15 -16 24 -18 22 -20 -21 -22 -23 -24 -25 -26 -27 -28 -29 -30 -31
leaf_value=-11.017553248130945 4.6477547583038197 -3.6432244516043593 -7.0393390477031748 0.42169970476436192 7.5659003679538692 -0.66650022265921027 1.7956496022633084 10.785001426095896 -1.8081007841836283 -0.15900712020154883 6.0537612055973256 -4.1850950701442766 10.714437506340659 8.325321782377074 -0.98663213635747715 -7.7252194319898226 6.8248819747996752 -6.0424091911176241 0.93925756737024035 -8.8266299301492364 2.8554032474734909 0.086490677752267417 -5.6730130003405765 2.9445704995529169 -8.4210121102227653 -2.5362558732322795 9.1479063036172548 -4.9426616609638394 -0.47756726832390478 -1.3864887853398677
leaf_weight=938 2913 5535 4360 43965 30897 105941 4343 838 13692 120973 35311 6480 8442 62450 132719 10088 21847 35502 43192 51897 22352 102060 53719 1523 12484 3239 29761 7040 110815 40157
leaf_count=938 2913 5535 4360 43965 30897 105941 4343 838 13692 120973 35311 6480 8442 62450 132719 10088 21847 35502 43192 51897 22352 102060 53719 1523 12484 3239 29761 7040 110815 40157
internal_value=0 -1.6171 -6.92213 -0.324397 7.76521 -0.58838 1.14825 8.50092 -1.22738 -0.304554 6.1839 -5.71305 9.52178 8.07396 -1.13298 -8.63938 6.3485 -5.87681 0.678184 -8.86553 2.68299 -0.0466672 -5.82 4.06301 -8.11004 -3.23458 9.19274 -4.57957 -0.56991 -1.49369
internal_weight=0 931491 182508 748983 193982 635131 113852 132388 195342 439789 61594 107101 39041 93347 186568 75407 57158 93581 87157 52835 26695 223033 89221 4436 22572 8774 30599 13520 216756 53849
internal_count=1125473 931491 182508 748983 193982 635131 113852 132388 195342 439789 61594 107101 39041 93347 186568 75407 57158 93581 87157 52835 26695 223033 89221 4436 22572 8774 30599 13520 216756 53849
is_linear=0
shrinkage=0.1


Tree=5
num_leaves=31
num_cat=0
split_feature=1 1 1 1 1 1 1 1 1 1 1 1 1 1 1 1 1 1 1 0 1 1 0 0 0 0 1 1 0 1
split_gain=1.14475e+09 5.17427e+08 3.06942e+07 2.3607e+07 1.82798e+07 9.04611e+06 7.05264e+06 4.72717e+06 2.97017e+06 2.33976e+06 1.74171e+06 1.63904e+06 1.21622e+06 943099 787294 731161 650063 575391 474779 358231 330804 262324 241334 234994 218793 202809 195766 182496 180912 176329
threshold=55.450150000000008 -46.300314999999991 -99.545079999999999 14.236625000000002 121.15047000000001 -0.86751999999999996 31.220410000000005 146.836555 -19.632174999999997 5.336215000000001 100.61114500000001 -72.021644999999992 135.383745 172.82877500000004 -6.2189949999999987 -118.97020499999998 106.87113500000002 19.257570000000005 -93.936534999999978 24.326365000000003 51.56116500000001 9.6515550000000019 10.290410000000001 22.853050000000003 25.602475000000002 -20.932664999999997 -12.642799999999999 -79.478114999999988 10.290410000000001 25.203635000000002
decision_type=2 2 2 2 2 2 2 2 2 2 2 2 2 2 2 2 2 2 2 2 2 2 2 2 2 2 2 2 2 2
left_child=1 2 15 5 10 8 17 12 25 -7 23 18 -6 -9 26 19 -12 -5 -4 -1 -8 -11 -13 28 -17 -3 -10 -20 -2 -19
right_child=4 3 11 6 7 9 20 13 14 21 16 22 -14 -15 -16 24 -18 29 27 -21 -22 -23 -24 -25 -26 -27 -28 -29 -30 -31
leaf_value=-9.9157977244493054 3.7189277489318706 -3.2789019488340685 -6.3354049160283639 0.33422450477818622 6.9271727510270971 -0.52169773120718177 1.6160846801114859 8.3996235750817849 -1.5812820221183179 -0.18968485868111687 5.4483847712711544 -3.7948578604691883 7.6246988045621409 9.6429935671316738 -0.86903312459950222 -6.9526974593335726 6.1423940574145561 0.70732538530741373 -5.4381683822175395 -7.9439669662820478 2.5698630481937057 0.032997359527191732 -4.552636545113419 2.6501134455399695 -7.5789108223809682 -2.2826302053163583 -1.1961709869103865 -5.1406976187944498 5.5213039395650227 1.1418858352650978
leaf_weight=938 2163 5535 4360 48391 43901 216460 4343 21993 18078 89480 35311 6672 58052 8442 115280 10088 21847 34729 35502 51897 22352 129409 11356 1523 12484 3239 48916 49211 750 12771
leaf_count=938 2163 5535 4360 48391 43901 216460 4343 21993 18078 89480 35311 6672 58052 8442 115280 10088 21847 34729 35502 51897 22352 129409 11356 1523 12484 3239 48916 49211 750 12771
internal_value=0 -1.45539 -6.22991 -0.291957 6.98869 -0.540316 0.977122 7.65083 -1.11397 -0.288572 5.56551 -5.14175 7.32434 8.74451 -1.02747 -7.77545 5.71365 0.576917 -5.31774 -7.97897 2.41469 -0.0580333 -4.27219 3.6567 -7.29904 -2.91112 -1.30009 -5.26536 4.18298 0.824163
internal_weight=0 931491 182508 748983 193982 626397 122586 132388 191048 435349 61594 107101 101953 30435 182274 75407 57158 95891 89073 52835 26695 218889 18028 4436 22572 8774 66994 84713 2913 47500
internal_count=1125473 931491 182508 748983 193982 626397 122586 132388 191048 435349 61594 107101 101953 30435 182274 75407 57158 95891 89073 52835 26695 218889 18028 4436 22572 8774 66994 84713 2913 47500
is_linear=0
shrinkage=0.1


Tree=6
num_leaves=31
num_cat=0
split_feature=1 1 1 1 1 1 1 1 1 1 1 1 1 1 0 1 1 1 1 1 1 1 1 0 0 1 0 0 0 0
split_gain=9.27245e+08 4.19116e+08 2.48623e+07 1.91532e+07 1.49025e+07 8.33299e+06 4.41122e+06 2.87849e+06 2.64478e+06 2.40292e+06 1.71497e+06 1.32763e+06 1.08927e+06 977917 748280 594597 437126 427675 388034 290556 242517 225435 200835 194808 190345 169048 165973 157184 146539 137742
threshold=55.450150000000008 -46.300314999999991 -99.545079999999999 17.857975000000003 126.83000500000001 0.8144300000000001 51.56116500000001 151.56578500000003 -19.632174999999997 114.11485 7.8041750000000016 -72.021644999999992 100.61114500000001 -5.4330649999999983 -34.616959999999992 -110.32727499999999 25.203635000000002 137.85811000000004 -81.538044999999983 12.635780000000002 -125.05924999999998 116.72883000000002 -57.109699999999997 32.637135000000008 22.853050000000003 3.7543900000000003 7.0418900000000013 26.462650000000004 10.290410000000001 34.410205000000012
decision_type=2 2 2 2 2 2 2 2 2 2 2 2 2 2 2 2 2 2 2 2 2 2 2 2 2 2 2 2 2 2
left_child=1 2 15 5 9 8 16 17 26 12 25 18 24 23 -9 20 -5 -6 -4 -12 27 -11 -13 -10 28 -7 -3 -1 -2 -22
right_child=4 3 11 6 7 10 -8 14 13 21 19 22 -14 -15 -16 -17 -18 -19 -20 -21 29 -23 -24 -25 -26 -27 -28 -29 -30 -31
leaf_value=-8.9684550631472515 3.347035175796135 -2.9235622954934333 -5.412525708838583 0.55364994074604401 6.5045703657738461 -0.47158305015013591 2.3128766208865765 8.7011898052373873 -1.4212005948580198 5.5081441220178684 -0.066001691273971333 -4.0346789354587225 4.9433650037609773 -0.70456913958621115 7.5777091819154236 -6.2194848140236374 1.1360004516047437 6.9616669010949357 -4.7164381197126444 0.18015108415205097 -6.8106880987774252 6.0153243178801974 -3.2577451612341259 -1.0500255478374305 2.3851020395951452 -0.28194071825517836 -1.9968435807782243 -7.5073215716289416 4.9691734319051113 -7.1411015543045906
leaf_weight=923 2163 5900 8897 52218 35048 115225 22352 9206 18307 13037 147949 13626 39658 154582 16651 8683 17114 49208 80176 70950 17600 26738 4402 62121 1523 79391 2874 3639 750 44562
leaf_count=923 2163 5900 8897 52218 35048 115225 22352 9206 18307 13037 147949 13626 39658 154582 16651 8683 17114 49208 80176 70950 17600 26738 4402 62121 1523 79391 2874 3639 750 44562
internal_value=0 -1.30985 -5.60692 -0.262761 6.28982 -0.451626 1.09124 7.05477 -0.915352 5.28551 -0.17824 -4.62757 4.77714 -0.85171 7.97771 -6.9979 0.697398 6.77153 -4.78597 0.0137819 -7.0992 5.84909 -3.84497 -1.13451 3.29103 -0.394221 -2.62001 -7.80294 3.76468 -7.04755
internal_weight=0 931491 182508 748983 193982 657299 91684 110113 243784 83869 413515 107101 44094 235010 25857 75407 69332 84256 89073 218899 66724 39775 18028 80428 4436 194616 8774 4562 2913 62162
internal_count=1125473 931491 182508 748983 193982 657299 91684 110113 243784 83869 413515 107101 44094 235010 25857 75407 69332 84256 89073 218899 66724 39775 18028 80428 4436 194616 8774 4562 2913 62162
is_linear=0
shrinkage=0.1


Tree=7
num_leaves=31
num_cat=0
split_feature=1 1 1 1 1 1 1 1 1 1 1 1 1 1 0 1 1 1 1 1 0 0 0 1 1 0 0 1 0 0
split_gain=7.51068e+08 3.39484e+08 2.01384e+07 1.5552e+07 1.20724e+07 6.10618e+06 4.52099e+06 2.18545e+06 2.17921e+06 2.02791e+06 1.37012e+06 1.09241e+06 825471 625390 606107 483233 354039 349650 306063 286574 234563 219429 237698 206128 176122 154180 151195 138407 135526 118697
threshold=55.450150000000008 -46.300314999999991 -99.545079999999999 14.365695000000001 129.04563000000005 -0.18036499999999997 31.220410000000005 151.56578500000003 106.87113500000002 -19.632174999999997 4.880935 -69.877334999999988 100.61114500000001 -5.902404999999999 -34.616959999999992 -118.97020499999998 22.952985000000002 -93.936534999999978 116.72883000000002 140.37669500000001 24.326365000000003 -23.928224999999994 29.690440000000006 9.6515550000000019 -76.592434999999981 22.853050000000003 24.326365000000003 -12.642799999999999 -20.932664999999997 10.290410000000001
decision_type=2 2 2 2 2 2 2 2 2 2 2 2 2 2 2 2 2 2 2 2 2 2 2 2 2 2 2 2 2 2
left_child=1 2 15 5 8 9 16 19 12 28 -7 17 25 27 -9 20 -5 -4 -10 -6 -1 -8 -23 -12 -19 29 -17 -11 -3 -2
right_child=4 3 11 6 7 10 21 14 18 13 23 -13 -14 -15 -16 26 -18 24 -20 -21 -22 22 -24 -25 -26 -27 -28 -29 -30 -31
leaf_value=-8.0308228677778111 3.012331581512536 -2.6586555179089388 -5.1606117070049322 0.32888881608750692 6.005456292018124 -0.41015382511917897 0.61653845796905449 7.8310703987819386 4.9111060835061071 -1.2830007321249794 -0.15960841897198322 -3.3245793332009628 4.4092101191715445 -0.67703434117207184 6.8199378806458926 -5.5924293645067245 0.73456441224856095 -4.3989985746344749 5.435285703255051 6.4288102049717484 -6.4352452753550198 2.103368598805857 0.87508678682188212 0.033454883945440626 -4.1165496427207673 2.1465919077592077 -6.1211973590975735 -0.96291083591505289 -1.8442398204226376 4.4722560886383063
leaf_weight=938 2163 5535 4360 56972 57896 189604 1161 9206 17384 18078 94279 13520 35311 132807 16651 8981 34564 40094 31008 22090 51897 23847 1687 133764 49127 1523 13591 53446 3239 750
leaf_count=938 2163 5535 4360 56972 57896 189604 1161 9206 17384 18078 94279 13520 35311 132807 16651 8981 34564 40094 31008 22090 51897 23847 1687 133764 49127 1523 13591 53446 3239 750
internal_value=0 -1.17886 -5.04623 -0.236485 5.66084 -0.43377 0.816013 6.38073 4.79634 -0.869345 -0.211517 -4.16481 4.24769 -0.805422 7.17994 -6.29811 0.482072 -4.28621 5.24698 6.12238 -6.46357 1.96108 2.02222 -0.0463626 -4.24348 2.96193 -5.91081 -1.04381 -2.35801 3.38821
internal_weight=0 931491 182508 748983 193982 630752 118231 105843 88139 213105 417647 107101 39747 204331 25857 75407 91536 93581 48392 79986 52835 26695 25534 228043 89221 4436 22572 71524 8774 2913
internal_count=1125473 931491 182508 748983 193982 630752 118231 105843 88139 213105 417647 107101 39747 204331 25857 75407 91536 93581 48392 79986 52835 26695 25534 228043 89221 4436 22572 71524 8774 2913
is_linear=0
shrinkage=0.1


Tree=8
num_leaves=31
num_cat=0
split_feature=1 1 1 1 1 1 1 1 1 1 1 1 1 1 0 1 1 0 1 1 0 0 1 1 1 1 1 0 1 1
split_gain=6.08365e+08 2.74982e+08 1.63121e+07 1.26348e+07 9.79403e+06 5.63678e+06 2.75805e+06 1.88594e+06 1.8094e+06 1.58248e+06 988872 888216 686270 668632 490946 396593 305204 281958 269456 213582 177737 192536 173833 163954 155629 152272 138448 124886 118535 112174
threshold=55.450150000000008 -46.300314999999991 -99.545079999999999 18.414915000000004 126.83000500000001 2.0155900000000004 31.220410000000005 151.56578500000003 -16.375124999999997 106.87113500000002 8.9148850000000017 -72.021644999999992 -4.1597149999999994 100.61114500000001 -34.616959999999992 -110.32727499999999 139.56881000000004 7.0418900000000013 -93.936534999999978 116.72883000000002 -23.928224999999994 29.690440000000006 -125.05924999999998 4.4217850000000007 -63.463889999999999 24.025750000000006 13.156750000000001 22.853050000000003 -9.5024249999999988 -79.478114999999988
decision_type=2 2 2 2 2 2 2 2 2 2 2 2 2 2 2 2 2 2 2 2 2 2 2 2 2 2 2 2 2 2
left_child=1 2 15 5 9 8 25 16 17 13 23 18 28 27 -9 22 -6 -3 -4 -11 -8 -22 -1 -7 -13 -5 -12 -2 -10 -20
right_child=4 3 11 6 7 10 20 14 12 19 26 24 -14 -15 -16 -17 -18 -19 29 -21 21 -23 -24 -25 -26 -27 -28 -29 -30 -31
leaf_value=-6.3468421041312215 3.0493919772470366 -2.3692906737206472 -4.6445506871074711 0.42765424970204108 5.2836257588856155 -0.33937183059473847 0.55488460550628582 7.0479633373564656 -1.0367581242018593 4.4199954725441932 -0.0063458312006222598 -3.3998817322012616 -0.5220694542349209 3.9682890986637318 6.1379443946138714 -5.0325692229208885 5.6649489878667989 -1.4391323701860883 -3.9739122455324649 4.8702632064300024 1.8930317231322773 0.7875781124840846 -5.7073030037998231 -0.16167618725200633 -2.8122394756381941 0.75927499473214588 0.18223795319389877 1.9319325983720006 -0.79172083232545887 -3.7406934066201623
leaf_weight=4562 2913 5906 4360 39151 39624 123627 1161 9206 26754 17384 120735 9080 155121 35311 16651 8683 44632 7271 35502 26738 23847 1687 62162 89525 8948 21423 57455 1523 75320 49211
leaf_count=4562 2913 5906 4360 39151 39624 123627 1161 9206 26754 17384 120735 9080 155121 35311 16651 8683 44632 7271 35502 26738 23847 1687 62162 89525 8948 21423 57455 1523 75320 49211
internal_value=0 -1.06098 -4.54161 -0.212837 5.09475 -0.361993 0.918139 5.71488 -0.713131 4.28058 -0.119398 -3.74833 -0.654576 3.82292 6.46194 -5.6683 5.48562 -1.85603 -3.87789 4.69286 1.76497 1.82 -5.75103 -0.264739 -3.10821 0.544937 0.0544605 2.66574 -0.855946 -3.83843
internal_weight=0 931491 182508 748983 193982 661714 87269 110113 270372 83869 391342 107101 257195 39747 25857 75407 84256 13177 89073 44122 26695 25534 66724 213152 18028 60574 178190 4436 102074 84713
internal_count=1125473 931491 182508 748983 193982 661714 87269 110113 270372 83869 391342 107101 257195 39747 25857 75407 84256 13177 89073 44122 26695 25534 66724 213152 18028 60574 178190 4436 102074 84713
is_linear=0
shrinkage=0.1


Tree=9
num_leaves=31
num_cat=0
split_feature=1 1 1 1 1 1 0 1 1 1 1 1 1 1 1 1 1 1 0 0 0 1 1 0 0 0 0 0 1 0
split_gain=4.92776e+08 2.22735e+08 1.32128e+07 1.02488e+07 7.95527e+06 4.87272e+06 1.91724e+06 1.88631e+06 1.54966e+06 849526 720942 720701 693523 513628 496664 348164 300787 247108 228386 227780 175674 146221 116275 116233 101157 102718 100652 96611.1 96555.6 95408.4
threshold=55.450150000000008 -46.300314999999991 -99.545079999999999 19.257570000000005 126.22573500000001 3.0732150000000003 29.690440000000006 144.61744000000002 -16.375124999999997 100.61114500000001 9.2730550000000012 -69.877334999999988 -3.6860699999999995 114.11485 172.82877500000004 -122.13604499999998 134.26661500000003 -80.433604999999986 7.0418900000000013 -23.928224999999994 24.326365000000003 13.549920000000002 -9.1135849999999987 24.326365000000003 22.853050000000003 1.3156800000000002 -39.397334999999991 30.389635000000002 4.6850900000000015 54.202020000000005
decision_type=2 2 2 2 2 2 2 2 2 2 2 2 2 2 2 2 2 2 2 2 2 2 2 2 2 2 2 2 2 2
left_child=1 2 15 5 9 8 19 16 18 24 28 17 22 -11 26 20 -6 27 -3 -5 -1 -12 -10 -17 25 -2 -9 -4 -7 -22
right_child=4 3 11 6 7 10 -8 14 12 13 21 -13 -14 -15 -16 23 -18 -19 -20 -21 29 -23 -24 -25 -26 -27 -28 -29 -30 -31
leaf_value=-6.6260300778415759 0.51520770436123864 -2.132361681591322 -4.090086545014926 0.72926117084783515 4.5216573929378407 -0.28012435703369093 0.54495185051425188 6.53796331728842 -0.91771087383850947 3.6008258026302347 0.0078541815082220356 -2.6910253036515956 -0.43763690777861158 4.1693044096304499 6.3235210432709188 -4.5201052279807987 4.93018387804503 -3.3938577453557444 -1.2952191173284324 1.7037285158927824 -5.2303035332352747 0.19729363072399309 -0.69160919933735832 -4.9603689631747034 1.7387393534379187 2.9026307598282308 5.4266930685981922 -3.6140254686525979 -0.13642418876094542 -9.2541115324375998
leaf_weight=926 193 5906 7235 2667 26103 92745 47681 838 31192 39658 120686 13520 177189 26523 8442 8993 58221 75969 7271 23847 47432 61511 83985 17997 1523 2720 29761 10377 94303 59
leaf_count=926 193 5906 7235 2667 26103 92745 47681 838 31192 39658 120686 13520 177189 26523 8442 8993 58221 75969 7271 23847 47432 61511 83985 17997 1523 2720 29761 10377 94303 59
internal_value=0 -0.954879 -4.08745 -0.191553 4.58528 -0.314213 0.924019 5.06979 -0.609622 3.73885 -0.0697687 -3.3735 -0.561811 3.82865 5.64447 -5.10147 4.80372 -3.4721 -1.67043 1.60571 -5.2619 0.0718103 -0.752842 -4.81367 2.39916 2.74445 5.45713 -3.80959 -0.207676 -5.2353
internal_weight=0 931491 182508 748983 193982 674788 74195 123365 305543 70617 369245 107101 292366 66181 39041 75407 84324 93581 13177 26514 48417 182197 115177 26990 4436 2913 30599 17612 187048 47491
internal_count=1125473 931491 182508 748983 193982 674788 74195 123365 305543 70617 369245 107101 292366 66181 39041 75407 84324 93581 13177 26514 48417 182197 115177 26990 4436 2913 30599 17612 187048 47491
is_linear=0
shrinkage=0.1


Tree=10
num_leaves=31
num_cat=0
split_feature=1 1 1 1 1 1 1 1 1 1 1 1 1 1 1 1 1 1 1 0 1 1 0 0 1 1 0 0 0 0
split_gain=3.99148e+08 1.80416e+08 1.07024e+07 8.31506e+06 6.4659e+06 3.50339e+06 2.15646e+06 1.62965e+06 1.03061e+06 921020 645436 598459 356162 336159 319171 282013 260177 182788 168808 142296 129932 124058 122156 121741 94871.7 83044.5 81937.4 93052 77521.4 77280.8
threshold=55.450150000000008 -46.300314999999991 -99.545079999999999 15.685990000000002 125.17733500000001 -1.15526 31.220410000000005 144.90580500000002 -19.632174999999997 6.7216950000000013 100.61114500000001 -72.021644999999992 172.82877500000004 135.383745 106.87113500000002 -122.13604499999998 -8.3265949999999975 -81.284064999999984 24.025750000000006 24.326365000000003 11.305665000000003 -57.109699999999997 -23.928224999999994 29.690440000000006 -106.63874499999999 3.2743850000000001 22.853050000000003 10.290410000000001 -39.397334999999991 54.202020000000005
decision_type=2 2 2 2 2 2 2 2 2 2 2 2 2 2 2 2 2 2 2 2 2 2 2 2 2 2 2 2 2 2
left_child=1 2 15 5 10 8 18 13 -3 25 26 17 28 -6 -12 19 -10 -4 -5 -1 -11 -13 -8 -24 -17 -7 27 -2 -9 -21
right_child=4 3 11 6 7 9 22 12 16 20 14 21 -14 -15 -16 24 -18 -19 -20 29 -22 -23 23 -25 -26 -27 -28 -29 -30 -31
leaf_value=-5.9634270810154035 2.137198671366515 -1.7299303354762099 -3.4872138197941691 0.29810905482378908 4.1016041113960107 -0.33729719264242708 0.42647002230010911 5.8947665278728199 -0.80326433393044894 -0.075601882663143244 3.2113772823831441 -2.6598140029677664 5.6911689581167249 4.486442311071861 3.6709267318569085 -4.4149943777828469 -0.54002405096832173 -3.082965345285761 0.62763927865194213 -4.7072734107173382 0.07932321030786757 -2.0491863153675154 1.5333556538873507 0.65432512283890509 -3.9072043983711184 -0.20465235058395678 1.564865452070731 3.4298282624562582 4.9138941347778804 -8.3287003080723654
leaf_weight=926 2163 8774 13117 56661 39326 163557 1161 832 53849 138997 35311 13626 8442 53682 26422 22595 124016 75956 21423 47432 88667 4402 23847 1687 4395 66344 1523 750 25531 59
leaf_count=926 2163 8774 13117 56661 39326 163557 1161 832 53849 138997 35311 13626 8442 53682 26422 22595 124016 75956 21423 47432 88667 4402 23847 1687 4395 66344 1523 750 25531 59
internal_value=0 -0.859391 -3.6787 -0.172398 4.12675 -0.306774 0.653776 4.54216 -0.671912 -0.157835 3.32435 -3.03615 5.12587 4.32372 3.40807 -4.59132 -0.619721 -3.1425 0.388518 -4.73571 -0.0152641 -2.51071 1.42967 1.47528 -4.33231 -0.299019 2.15925 2.47001 4.94485 -4.71177
internal_weight=0 931491 182508 748983 193982 644204 104779 127813 186639 457565 66169 107101 34805 93008 61733 75407 177865 89073 78084 48417 227664 18028 26695 25534 26990 229901 4436 2913 26363 47491
internal_count=1125473 931491 182508 748983 193982 644204 104779 127813 186639 457565 66169 107101 34805 93008 61733 75407 177865 89073 78084 48417 227664 18028 26695 25534 26990 229901 4436 2913 26363 47491
is_linear=0
shrinkage=0.1


Tree=11
num_leaves=31
num_cat=0
split_feature=1 1 1 1 1 1 1 1 1 1 1 1 1 1 1 0 1 1 1 1 1 0 0 0 1 1 0 0 0 0
split_gain=3.2331e+08 1.46137e+08 8.67755e+06 6.77477e+06 5.27672e+06 3.15268e+06 1.28375e+06 963351 935884 910360 726839 449622 413554 376358 324631 250284 148529 137929 113034 103975 101724 100499 98946.2 98610.4 87052.4 76190.8 67829.2 66369.3 80463.8 59991
threshold=55.450150000000008 -46.300314999999991 -93.936534999999978 18.662825000000002 129.04563000000005 0.20989500000000003 31.220410000000005 151.56578500000003 114.11485 -19.632174999999997 8.729985000000001 -63.463889999999999 -110.32727499999999 100.61114500000001 -5.056964999999999 -34.616959999999992 -76.073129999999978 141.11070000000004 4.0925550000000008 -125.05924999999998 12.990025000000001 24.921835000000005 -23.928224999999994 29.690440000000006 -14.681559999999999 25.203635000000002 -20.932664999999997 22.853050000000003 1.3156800000000002 26.462650000000004
decision_type=2 2 2 2 2 2 2 2 2 2 2 2 2 2 2 2 2 2 2 2 2 2 2 2 2 2 2 2 2 2
left_child=1 2 12 5 8 9 25 17 13 26 18 16 19 27 24 -9 -4 -6 -7 29 -12 -10 -8 -24 -11 -5 -3 28 -2 -1
right_child=4 3 11 6 7 10 22 15 21 14 20 -13 -14 -15 -16 -17 -18 -19 -20 -21 -22 -23 23 -25 -26 -27 -28 -29 -30 -31
leaf_value=-5.3748969424197117 0.24996704548751755 -1.7696317370861849 -2.8572926139234784 0.3641400309428004 3.949127288980856 -0.27821332248728864 0.38382301901456717 5.1390521690323903 3.2774708103203132 -0.89806744965969243 -0.014446327703040981 -2.0259715874066138 -3.5783924797840174 2.9145683408522967 -0.41919035406257443 4.4892970364356239 -2.590775217888118 4.2671067811414192 -0.14169810963287074 -4.1602450360509602 0.13388656805062496 3.5879712736217857 1.3800200826287816 0.58889263067714692 -0.62394049668849982 0.64543513457353763 -1.1934720611071497 1.4083788457859212 2.3630054839043058 -4.4722275685988864
leaf_weight=923 193 5535 62325 39137 62539 133397 1161 9206 16937 13692 120415 8948 13043 39658 132571 16651 31468 17447 111223 62162 75046 27108 23847 1687 75262 12771 3239 1523 2720 3639
leaf_count=923 193 5535 62325 39137 62539 133397 1161 9206 16937 13692 120415 8948 13043 39658 132571 16651 31468 17447 111223 62162 75046 27108 23847 1687 75262 12771 3239 1523 2720 3639
internal_value=0 -0.773452 -3.31083 -0.155158 3.71408 -0.258142 0.723161 4.19002 3.14253 -0.55792 -0.101265 -2.70326 -4.09339 2.81686 -0.518352 4.72063 -2.76787 4.01849 -0.216143 -4.19406 0.0425051 3.46857 1.2867 1.32775 -0.666135 0.433347 -1.55694 1.94332 2.22301 -4.65486
internal_weight=0 931491 182508 748983 193982 670380 78603 105843 88139 230299 440081 102741 79767 44094 221525 25857 93793 79986 244620 66724 195461 44045 26695 25534 88954 51908 8774 4436 2913 4562
internal_count=1125473 931491 182508 748983 193982 670380 78603 105843 88139 230299 440081 102741 79767 44094 221525 25857 93793 79986 244620 66724 195461 44045 26695 25534 88954 51908 8774 4436 2913 4562
is_linear=0
shrinkage=0.1


Tree=12
num_leaves=31
num_cat=0
split_feature=1 1 1 1 1 1 0 1 1 1 1 1 1 1 0 1 0 1 1 0 1 0 0 1 0 0 0 1 0 0
split_gain=2.61881e+08 1.18371e+08 7.03899e+06 5.4939e+06 4.27414e+06 2.61694e+06 1.01267e+06 836098 780315 761550 420876 406508 318298 284592 202730 199959 183728 120944 117466 114379 114195 105679 92252.9 77108.6 74399.5 63090.3 61494.4 56687.1 53759.1 72948.8
threshold=55.450150000000008 -46.300314999999991 -99.545079999999999 19.257570000000005 129.04563000000005 2.5891850000000001 29.690440000000006 -15.419154999999998 151.56578500000003 106.87113500000002 9.2730550000000012 -74.010344999999987 -3.4173199999999997 100.61114500000001 -34.616959999999992 -122.13604499999998 7.0418900000000013 137.85811000000004 -93.936534999999978 -23.928224999999994 116.72883000000002 1.3156800000000002 24.326365000000003 13.364485000000002 -31.543984999999996 24.326365000000003 54.202020000000005 4.6850900000000015 22.853050000000003 10.290410000000001
decision_type=2 2 2 2 2 2 2 2 2 2 2 2 2 2 2 2 2 2 2 2 2 2 2 2 2 2 2 2 2 2
left_child=1 2 15 5 9 7 19 16 17 13 27 18 -9 28 -10 22 -3 -6 -4 -5 -11 24 -1 -12 -13 -17 -24 -7 29 -2
right_child=4 3 11 6 8 10 -8 12 14 20 23 21 -14 -15 -16 25 -18 -19 -20 -21 -22 -23 26 -25 -26 -27 -28 -29 -30 -31
leaf_value=-4.829988047680124 1.7060324613991789 -1.5722390148667666 -3.0645261725154493 0.55148814934489876 3.4611548699228933 -0.20758492581244298 0.40163601634361457 -0.53815416113825032 4.6251468345597342 2.8895156293435411 0.0037949507778379725 -2.0560563816373043 -0.31992860168649973 2.5987828349308217 4.0403674386784907 -3.2854847632617799 -0.89156020488052157 3.713887832153524 -2.5315625589402 1.2420181577213756 3.2096982378708692 -2.222373537616297 -3.8181667522186573 0.13916496004545453 -1.3890911304104412 -3.60984710341077 -7.0486076613604016 -0.10093869312218379 1.2675409853654087 2.8505447396119439
leaf_weight=926 2163 5910 4360 2667 30778 105715 47681 114981 9206 17384 116246 3632 159630 35311 16651 8993 12052 49208 80276 23847 31008 15733 47432 65951 3100 17997 59 94303 1523 750
leaf_count=926 2163 5910 4360 2667 30778 105715 47681 114981 9206 17384 116246 3632 159630 35311 16651 8993 12052 49208 80276 23847 31008 15733 47432 65951 3100 17997 59 94303 1523 750
internal_value=0 -0.696107 -2.97975 -0.139642 3.34267 -0.229449 0.67713 -0.454535 3.77102 2.82828 -0.0571522 -2.45865 -0.411301 2.50394 4.24857 -3.71987 -1.11552 3.61664 -2.55902 1.17256 3.09468 -2.0805 -3.84145 0.0527957 -1.74893 -3.50177 -3.82218 -0.157304 1.74899 2.00071
internal_weight=0 931491 182508 748983 193982 674788 74195 292573 105843 88139 382215 107101 274611 39747 25857 75407 17962 79986 84636 26514 48392 22465 48417 182197 6732 26990 47491 200018 4436 2913
internal_count=1125473 931491 182508 748983 193982 674788 74195 292573 105843 88139 382215 107101 274611 39747 25857 75407 17962 79986 84636 26514 48392 22465 48417 182197 6732 26990 47491 200018 4436 2913
is_linear=0
shrinkage=0.1


Tree=13
num_leaves=31
num_cat=0
split_feature=1 1 1 1 1 1 1 1 1 1 1 1 1 0 1 1 1 1 1 1 1 0 0 0 1 1 0 0 1 0
split_gain=2.12124e+08 9.58803e+07 5.70158e+06 4.46112e+06 3.46754e+06 1.98663e+06 996348 683834 589371 588091 526130 342033 261233 164211 162777 127074 111774 89577.5 88674.4 85658.9 80062.8 73837.5 68612.7 62132.2 54204.9 51711.5 50215.6 49377.6 46855.3 46602.1
threshold=55.450150000000008 -46.300314999999991 -99.545079999999999 17.857975000000003 129.51477000000003 -1.9058049999999997 31.220410000000005 115.65361500000002 7.1621450000000006 151.56578500000003 -19.632174999999997 -74.518889999999985 100.61114500000001 -34.616959999999992 -118.97020499999998 -9.1135849999999987 -63.463889999999999 11.866935000000002 141.11070000000004 -93.936534999999978 25.197565000000001 24.326365000000003 -23.928224999999994 29.690440000000006 3.0732150000000003 103.67829500000001 54.202020000000005 24.921835000000005 -106.63874499999999 1.3156800000000002
decision_type=2 2 2 2 2 2 2 2 2 2 2 2 2 2 2 2 2 2 2 2 2 2 2 2 2 2 2 2 2 2
left_child=1 2 14 5 7 10 20 12 24 18 -3 19 29 -11 21 -12 -13 -10 -6 -4 -5 -1 -8 -24 -7 -14 -23 -9 -16 -2
right_child=4 3 11 6 9 8 22 27 17 13 15 16 25 -15 28 -17 -18 -19 -20 -21 -22 26 23 -25 -26 -27 -28 -29 -30 -31
leaf_value=-4.3232385118887118 0.054367101316007305 -1.2663158861704125 -2.7580735969980923 0.25046923283219485 3.2119771938549171 -0.26359156983415627 0.29029191027007978 2.6836303269777964 -0.048905546760567124 4.1626319921718533 -0.63767451195891678 -2.0543502217814682 2.1595301734322976 3.6363307260320066 -3.1939472149063368 -0.42344485341440641 -1.636278992909963 0.078189704251750813 3.4690074561748725 -2.3014929117937517 0.50305818898774235 -3.4247061143332993 1.1178162872707647 0.48983973224416033 -0.17050072618370404 2.4329951803403458 -6.3437469741045422 2.9170021784540507 -2.8300960151924075 1.6432186704324772
leaf_weight=938 193 8774 4360 47998 58187 136521 1161 12737 147421 9206 35595 22414 8602 16651 18177 124653 8948 88894 17447 71379 16991 51838 23847 1687 115441 35256 59 31460 4395 4243
leaf_count=938 193 8774 4360 47998 58187 136521 1161 12737 147421 9206 35595 22414 8602 16651 18177 124653 8948 88894 17447 71379 16991 51838 23847 1687 115441 35256 59 31460 4395 4243
internal_value=0 -0.626496 -2.68177 -0.125678 3.0084 -0.216827 0.527785 2.56551 -0.114541 3.41202 -0.512314 -2.21278 2.30539 3.82371 -3.34789 -0.471031 -1.93507 -0.00109646 3.27127 -2.32778 0.316507 -3.44392 1.04214 1.07633 -0.22094 2.37936 -3.42802 2.84975 -3.1231 1.57409
internal_weight=0 931491 182508 748983 193982 657299 91684 92491 488277 101491 169022 107101 48294 25857 75407 160248 31362 236315 75634 75739 64989 52835 26695 25534 251962 43858 51897 44197 22572 4436
internal_count=1125473 931491 182508 748983 193982 657299 91684 92491 488277 101491 169022 107101 48294 25857 75407 160248 31362 236315 75634 75739 64989 52835 26695 25534 251962 43858 51897 44197 22572 4436
is_linear=0
shrinkage=0.1


Tree=14
num_leaves=31
num_cat=0
split_feature=1 1 1 1 1 1 0 1 1 1 1 1 1 1 1 0 1 0 1 0 1 0 1 0 0 0 0 0 1 1
split_gain=1.7182e+08 7.76712e+07 4.96026e+06 3.55307e+06 2.8087e+06 1.58267e+06 662224 559049 476354 466293 437542 224676 185233 176293 133602 133011 91203.2 82575.8 73378.2 72491.7 72227.5 70745 62489.1 44945.4 57473.2 42580.9 37843.4 36796.8 35077.3 32752.8
threshold=55.450150000000008 -43.210334999999993 -93.936534999999978 19.257570000000005 129.51477000000003 3.6444300000000003 29.690440000000006 106.87113500000002 151.56578500000003 -4.8404949999999989 -63.463889999999999 -110.32727499999999 100.61114500000001 10.767805000000001 -14.681559999999999 -34.616959999999992 -76.073129999999978 24.921835000000005 140.37669500000001 -23.928224999999994 -123.54557499999999 -20.932664999999997 -2.4446499999999998 22.853050000000003 10.290410000000001 24.326365000000003 1.3156800000000002 54.202020000000005 29.241775000000001 -57.109699999999997
decision_type=2 2 2 2 2 2 2 2 2 2 2 2 2 2 2 2 2 2 2 2 2 2 2 2 2 2 2 2 2 2
left_child=1 2 11 5 7 9 19 12 18 14 16 20 23 -7 21 -10 -4 -9 -6 -5 25 -3 -11 24 26 -1 -2 -27 -8 -12
right_child=4 3 10 6 8 13 28 17 15 22 29 -13 -14 -15 -16 -17 -18 -19 -20 -21 -22 -23 -24 -25 -26 27 -28 -29 -30 -31
leaf_value=-3.9220847358166333 0.048930387237529065 -1.4765812248344392 -2.0882577683272441 0.45629957895579304 2.8808756481384674 -0.082742094049309961 0.28617350975858985 2.3702627733313397 3.7463687933193146 -0.34541369714140019 -1.621103773272305 -2.6044893679494172 2.1022668219967118 0.067206682615339686 -0.45550520188449328 3.2726974010553445 -1.8794125047438599 2.6253019791049557 3.0974908077193368 1.0060346828869573 -3.0063894977874082 -0.70188110125827563 -0.22707846965826528 0.97646508814861177 2.4011684423128763 -3.2060463995271591 1.516206268707508 -5.7093719999668968 0.50611428373597667 -1.2897318661034261
leaf_weight=923 193 1267 62325 2667 53544 182933 38761 21284 9206 57906 4546 13043 35311 137218 79701 16651 31468 31460 22090 23847 53431 16927 194564 1523 750 12311 1970 59 8920 8674
leaf_count=923 193 1267 62325 2667 53544 182933 38761 21284 9206 57906 4546 13043 35311 137218 79701 16651 31468 31460 22090 23847 53431 16927 194564 1523 750 12311 1970 59 8920 8674
internal_value=0 -0.563847 -2.38719 -0.106535 2.70756 -0.179195 0.550101 2.30896 3.07081 -0.326056 -1.94228 -2.98408 2.02575 -0.0184734 -0.511321 3.44134 -2.01819 2.52238 2.94414 0.950738 -3.05828 -0.75583 -0.25422 1.41668 1.64684 -3.26688 1.38528 -3.21799 0.327319 -1.40368
internal_weight=0 931491 186780 744711 193982 670516 74195 92491 101491 350365 107013 79767 39747 320151 97895 25857 93793 52744 75634 26514 66724 18194 252470 4436 2913 13293 2163 12370 47681 13220
internal_count=1125473 931491 186780 744711 193982 670516 74195 92491 101491 350365 107013 79767 39747 320151 97895 25857 93793 52744 75634 26514 66724 18194 252470 4436 2913 13293 2163 12370 47681 13220
is_linear=0
shrinkage=0.1


Tree=15
num_leaves=31
num_cat=0
split_feature=1 1 1 1 1 1 1 1 1 1 1 1 1 1 1 1 1 1 1 0 0 0 0 1 0 0 1 1 0 0
split_gain=1.39174e+08 6.29136e+07 4.02301e+06 2.89388e+06 2.28007e+06 1.07594e+06 787144 449534 379952 376237 227522 221434 137222 119156 115690 109273 70946.9 67624.9 67617.2 67259.3 65636.8 51899.7 48638.5 48471.2 36405.8 46553.3 35478.1 34759.5 33948.1 33468.6
threshold=55.450150000000008 -43.210334999999993 -99.545079999999999 14.793380000000001 126.83000500000001 0.18317000000000003 29.467575000000004 144.90580500000002 -63.463889999999999 104.07732500000002 8.5495950000000018 -10.091415 100.61114500000001 153.50573000000003 -122.13604499999998 -79.732719999999986 -3.8858549999999998 116.72883000000002 136.99076500000004 29.690440000000006 -20.932664999999997 -23.928224999999994 24.326365000000003 23.604715000000002 22.853050000000003 10.290410000000001 -106.63874499999999 -74.518889999999985 -32.044264999999989 7.0418900000000013
decision_type=2 2 2 2 2 2 2 2 2 2 2 2 2 2 2 2 2 2 2 2 2 2 2 2 2 2 2 2 2 2
left_child=1 2 14 5 9 11 23 18 15 12 -7 20 24 -9 22 -4 -13 -11 -6 21 -3 -8 -1 -5 25 -2 -16 -17 -15 -14
right_child=4 3 8 6 7 10 19 13 -10 17 -12 16 29 28 26 27 -18 -19 -20 -21 -22 -23 -24 -25 -26 -27 -28 -29 -30 -31
leaf_value=-3.5227537335381394 1.246755903063689 -1.3289230674858064 -1.9894739078588675 0.15582006803728796 2.4844608286885213 -0.15214491357172072 0.42780749025212139 2.8932537330189398 -1.2633135848254518 2.0939399312117977 -0.0024643507590612962 -0.38588947386408162 1.9195640917064936 3.3777245728192065 -2.5971621958696094 -1.8135743625609455 -0.26479182857254957 2.3308810287428221 2.6772815814640829 0.44615024985973845 -0.59153217274204606 0.90543120583095915 -2.7909782733898361 0.32082158250873394 0.87881856562663918 2.161051560020447 -2.2866374580635012 -1.6609739589682655 3.0095890272072818 1.6508050492337194
leaf_weight=926 2163 1267 31055 56977 30709 221184 2515 22137 13220 21921 187759 88753 25091 9230 22595 44684 106353 26738 44599 4618 25543 23847 47491 25895 1523 750 4395 22414 3438 5683
leaf_count=926 2163 1267 31055 56977 30709 221184 2515 22137 13220 21921 187759 88753 25091 9230 22595 44684 106353 26738 44599 4618 25543 23847 47491 25895 1523 750 4395 22414 3438 5683
internal_value=0 -0.507462 -2.14847 -0.0958819 2.43681 -0.179625 0.368144 2.73601 -1.76659 2.04397 -0.0834217 -0.356908 1.79498 3.03322 -2.71249 -1.83438 -0.319879 2.22414 2.59865 0.798195 -0.62638 0.859865 -2.80497 0.207378 1.27501 1.48216 -2.5466 -1.7626 3.27782 1.86993
internal_weight=0 931491 186780 744711 193982 630859 113852 110113 111373 83869 408943 221916 35210 34805 75407 98153 195106 48659 75308 30980 26810 26362 48417 82872 4436 2913 26990 67098 12668 30774
internal_count=1125473 931491 186780 744711 193982 630859 113852 110113 111373 83869 408943 221916 35210 34805 75407 98153 195106 48659 75308 30980 26810 26362 48417 82872 4436 2913 26990 67098 12668 30774
is_linear=0
shrinkage=0.1


Tree=16
num_leaves=31
num_cat=0
split_feature=1 1 1 1 1 1 1 1 1 1 1 1 1 1 0 1 1 0 1 1 0 0 0 1 1 0 0 1 0 0
split_gain=1.12731e+08 5.09803e+07 3.0374e+06 2.41476e+06 1.85075e+06 946068 697000 369509 316983 275758 255987 159436 143415 132937 70391.1 67995.2 65377 54480 54277.5 50253.8 49676.2 44656.8 42038.8 40398.4 39934.8 56215 38132.7 35432.5 29536.9 30310.1
threshold=55.450150000000008 -46.300314999999991 -93.936534999999978 13.744285000000001 129.51477000000003 -2.4446499999999998 29.467575000000004 114.11485 153.16471500000003 -19.632174999999997 4.2790150000000011 -72.021644999999992 -110.32727499999999 100.88128500000002 -32.044264999999989 141.11070000000004 -8.7524549999999977 29.690440000000006 -123.23983499999999 21.666765000000002 22.853050000000003 1.3156800000000002 -23.928224999999994 -76.592434999999981 -57.109699999999997 -32.791519999999991 24.921835000000005 9.8777850000000011 24.326365000000003 54.202020000000005
decision_type=2 2 2 2 2 2 2 2 2 2 2 2 2 2 2 2 2 2 2 2 2 2 2 2 2 2 2 2 2 2
left_child=1 2 12 5 7 9 19 13 15 -3 -7 23 18 20 -10 -6 -11 22 28 -5 21 -2 -8 -4 -13 -26 -9 -12 -1 -30
right_child=4 3 11 6 8 10 17 26 14 16 27 24 -14 -15 -16 -17 -18 -19 -20 -21 -22 -23 -24 -25 25 -27 -28 -29 29 -31
leaf_value=-3.1776007998415867 -0.080638242146202938 -0.92717713771102872 -1.7262465521659782 0.11304480538695205 2.3405544881627116 -0.17493349255785032 0.38502675157418076 1.9393710156064772 3.0395842811170759 -0.45178162723138665 -0.066660669379501367 -1.4104873736804406 -2.1151014281938774 1.7461527955242879 2.6717640791571911 2.5464094954542102 -0.30785650319256758 0.40153521949618143 -2.4230787326508589 0.26044663720875216 0.79093668468673217 1.4614064594990794 0.81488804656834302 -1.587935349345942 -1.6258492662327524 -0.83673148605577008 2.1254770464512172 0.011492858932054933 -2.5888230218855739 -4.8593369047520527
leaf_weight=923 193 8774 40094 57036 58187 229590 2515 16937 9239 44865 111652 13626 13043 35409 11910 22155 106434 4618 48838 38907 1523 6969 23847 44619 1268 3134 31460 120745 16904 59
leaf_count=923 193 8774 40094 57036 58187 229590 2515 16937 9239 44865 111652 13626 13043 35409 11910 22155 106434 4618 48838 38907 1523 6969 23847 44619 1268 3134 31460 120745 16904 59
internal_value=0 -0.456716 -1.95539 -0.0915276 2.19312 -0.172634 0.305981 1.86956 2.48799 -0.382142 -0.100042 -1.59593 -2.41838 1.66016 2.83245 2.39732 -0.350535 0.718375 -2.47766 0.172819 1.30957 1.41985 0.773878 -1.6534 -1.32589 -1.06404 2.06035 -0.0260549 -2.6267 -2.59672
internal_weight=0 931491 182508 748983 193982 622060 126923 92491 101491 160073 461987 102741 79767 44094 21149 80342 151299 30980 66724 95943 8685 7162 26362 84713 18028 4402 48397 232397 17886 16963
internal_count=1125473 931491 182508 748983 193982 622060 126923 92491 101491 160073 461987 102741 79767 44094 21149 80342 151299 30980 66724 95943 8685 7162 26362 84713 18028 4402 48397 232397 17886 16963
is_linear=0
shrinkage=0.1


Tree=17
num_leaves=31
num_cat=0
split_feature=1 1 1 1 1 1 1 1 1 1 1 1 1 1 1 0 1 0 1 1 0 0 1 0 0 1 0 0 0 0
split_gain=9.13123e+07 4.1294e+07 2.46297e+06 1.95833e+06 1.50255e+06 695259 680693 345317 222689 194697 171058 150871 89759.5 88911.9 80187.6 65256.1 61056.6 51984.3 50308.5 44992.2 43985.1 42938.3 38061.9 34051.4 31573.9 28513.1 28508.5 26300.9 24578.6 32429.3
threshold=55.450150000000008 -46.300314999999991 -99.545079999999999 12.822405000000002 126.60568500000001 -2.7145449999999998 29.241775000000001 144.61744000000002 -16.375124999999997 104.07732500000002 4.0925550000000008 -74.518889999999985 100.61114500000001 153.50573000000003 -122.13604499999998 29.690440000000006 136.80997500000004 1.3156800000000002 -80.433604999999986 19.257570000000005 7.0418900000000013 -31.543984999999996 -7.0098249999999984 -23.928224999999994 24.326365000000003 116.72883000000002 30.389635000000002 54.202020000000005 1.3156800000000002 22.853050000000003
decision_type=2 2 2 2 2 2 2 2 2 2 2 2 2 2 2 2 2 2 2 2 2 2 2 2 2 2 2 2 2 2
left_child=1 2 14 5 9 8 19 16 20 12 -7 18 28 -9 24 23 -6 21 26 -5 -3 -13 -10 -8 -1 -11 -4 -26 -2 -30
right_child=4 3 11 6 7 10 15 13 22 25 -12 17 -14 -15 -16 -17 -18 -19 -20 -21 -22 -23 -24 -25 27 -27 -28 -29 29 -31
leaf_value=-2.8529626263913017 -0.072574413817501363 -0.94355856800357896 -1.8284108207665728 0.077796725926296453 1.9770623390734823 -0.16666718924906351 0.34652406396733126 2.3337234252260273 -0.37337263499814999 1.6984395449855763 -0.041195487969949846 -1.2540401549678677 1.5122556528447317 2.6560578396390357 -2.0595373802602004 0.38358327912108248 2.1529836990683489 -1.3345135321224202 -1.4831162736189738 0.20789577899401374 -0.5761772804664117 -0.74757641529266339 -0.26814993527864101 0.73339927592067378 -2.2607457784843157 1.8689602163715038 -1.5698060825701177 -4.373403219449318 1.2881728632309857 0.71184301820931584
leaf_weight=926 193 5906 7235 83886 35230 208242 2515 26373 58116 21921 227206 3639 30774 12668 26990 8920 44837 24623 58127 38913 7271 3100 84161 23847 47432 17743 10377 59 2720 1523
leaf_count=926 193 5906 7235 83886 35230 208242 2515 26373 58116 21921 227206 3639 30774 12668 26990 8920 44837 24623 58127 38913 7271 3100 84161 23847 47432 17743 10377 59 2720 1523
internal_value=0 -0.411044 -1.75985 -0.0823748 1.97381 -0.16601 0.230251 2.19447 -0.347554 1.62279 -0.101199 -1.4516 1.45164 2.43831 -2.19765 0.617381 2.07558 -1.26716 -1.52798 0.119023 -0.740839 -1.02106 -0.31113 0.69649 -2.27465 1.77472 -1.67604 -2.26337 1.0311 1.0813
internal_weight=0 931491 182508 748983 193982 590902 158081 119108 155454 74874 435448 107101 35210 39041 75407 35282 80067 31362 75739 122799 13177 6739 142277 26362 48417 39664 17612 47491 4436 4243
internal_count=1125473 931491 182508 748983 193982 590902 158081 119108 155454 74874 435448 107101 35210 39041 75407 35282 80067 31362 75739 122799 13177 6739 142277 26362 48417 39664 17612 47491 4436 4243
is_linear=0
shrinkage=0.1


Tree=18
num_leaves=31
num_cat=0
split_feature=1 1 1 1 1 1 1 1 1 1 1 1 1 1 0 0 0 1 1 1 1 0 0 0 1 0 0 0 0 1
split_gain=7.3963e+07 3.34482e+07 2.00101e+06 1.59415e+06 1.22139e+06 592919 533033 243862 210496 169704 140233 136319 74679.7 60134.2 55748.1 52857.4 46941.7 45819.5 44776.1 44522.3 39479.1 34780 31245.8 30977 29372.6 28784.3 27581.6 21288.9 20247 19501.9
threshold=55.450150000000008 -46.300314999999991 -106.63874499999999 12.096725000000001 129.51477000000003 29.241775000000001 -3.1114749999999995 104.07732500000002 146.836555 -19.632174999999997 -75.302694999999986 3.6444300000000003 100.88128500000002 -81.538044999999983 -35.045174999999993 29.690440000000006 1.3156800000000002 -122.89882499999997 116.72883000000002 18.654485000000005 -9.8083449999999974 -31.543984999999996 24.326365000000003 30.389635000000002 139.56881000000004 1.3156800000000002 -23.928224999999994 24.326365000000003 54.202020000000005 8.8874150000000025
decision_type=2 2 2 2 2 2 2 2 2 2 2 2 2 2 2 2 2 2 2 2 2 2 2 2 2 2 2 2 2 2
left_child=1 2 17 6 7 19 9 12 24 -3 13 -8 22 23 -10 26 21 27 -9 -5 -11 -12 25 -4 -6 -2 -7 -1 -29 -13
right_child=4 3 10 5 8 15 11 18 14 20 16 29 -14 -15 -16 -17 -18 -19 -20 -21 -22 -23 -24 -25 -26 -27 -28 28 -30 -31
leaf_value=-2.5745444643923676 -0.065316973754006968 -0.75213748626431531 -1.6606981221254551 0.056952186293107387 1.8486401090713618 0.31187167514626601 -0.15690009802877103 1.5285955571382184 2.4352855658749561 -0.40577213811403601 -1.1286361764308743 -0.070964388420340016 1.3898073439638532 -1.3556831363688875 2.1440985648809603 0.34522495206651926 -1.2118114181828517 -1.9366894611071801 1.7104995145840882 0.17581667019730551 -0.26926713923349782 -0.67281877825337078 0.640312898072814 -1.2604721373017671 1.9782845899229813 1.1727090110978546 0.66005933681573947 -2.0814453041014604 -3.9360630455663648 -0.010600343747621676
leaf_weight=923 193 8774 10943 93096 31002 2515 217085 21921 9608 26739 3639 124396 26525 62322 20827 8920 29143 44458 35360 47636 102039 3100 1521 2349 40054 6971 23847 25572 59 93936
leaf_count=923 193 8774 10943 93096 31002 2515 217085 21921 9608 26739 3639 124396 26525 62322 20827 8920 29143 44458 35360 47636 102039 3100 1521 2349 40054 6971 23847 25572 59 93936
internal_value=0 -0.36994 -1.58386 -0.0741374 1.77643 0.189084 -0.154998 1.51358 2.01597 -0.326603 -1.31961 -0.100786 1.30647 -1.39687 2.23602 0.555643 -1.15681 -1.99877 1.64089 0.0971863 -0.297611 -0.918956 1.05196 -1.58997 1.92172 1.13936 0.626841 -2.10271 -2.08571 -0.0449931
internal_weight=0 931491 182508 748983 193982 176014 572969 92491 101491 137552 111496 435417 35210 75614 30435 35282 35882 71012 57281 140732 128778 6739 8685 13292 71056 7164 26362 26554 25631 218332
internal_count=1125473 931491 182508 748983 193982 176014 572969 92491 101491 137552 111496 435417 35210 75614 30435 35282 35882 71012 57281 140732 128778 6739 8685 13292 71056 7164 26362 26554 25631 218332
is_linear=0
shrinkage=0.1


Tree=19
num_leaves=31
num_cat=0
split_feature=1 1 1 1 1 1 1 1 1 1 1 1 1 1 1 0 0 1 1 0 1 0 0 0 0 0 0 0 1 1
split_gain=5.991e+07 2.70935e+07 1.73418e+06 1.26418e+06 991148 464334 370843 185123 180091 178888 110392 73505.3 67962.9 60490.6 44699.9 42814.5 40721.8 37835 37489.3 35389.9 31624.3 25311.7 24474.1 23617.6 23318.4 22341.1 21930.7 20123.7 17583.2 16912.5
threshold=55.450150000000008 -43.210334999999993 -106.63874499999999 13.744285000000001 129.04563000000005 1.4651050000000001 29.241775000000001 153.16471500000003 104.07732500000002 -69.877334999999988 -10.091415 -80.433604999999986 8.565965000000002 100.88128500000002 139.89209500000001 29.690440000000006 -32.044264999999989 -123.89964499999999 -4.4125099999999993 -20.932664999999997 116.72883000000002 22.853050000000003 1.0000000180025095e-35 -32.791519999999991 1.3156800000000002 -23.928224999999994 30.389635000000002 34.410205000000012 19.257570000000005 51.56116500000001
decision_type=2 2 2 2 2 2 2 2 2 2 2 2 2 2 2 2 2 2 2 2 2 2 2 2 2 2 2 2 2 2
left_child=1 2 17 5 8 10 28 14 13 11 19 26 -7 21 -6 25 -9 -1 -12 -3 -10 24 23 -11 -2 -8 -4 -19 -5 -27
right_child=4 3 9 6 7 12 15 16 20 22 18 -13 -14 -15 -16 -17 -18 27 -20 -21 -22 -23 -24 -25 -26 29 -28 -29 -30 -31
leaf_value=-1.9898861451860292 -0.058785278527693434 -0.93374350452949995 -1.4793895839763325 0.080905749783103054 1.6833475710265393 -0.086080232389717529 0.28068448996923084 2.2272635147857751 1.3757360078487881 -1.0043648654467441 -0.25844075462257493 -1.1775450889021895 0.0015145009430657663 1.2508266640212826 1.8338540713830189 0.31070244386437296 1.9475007087137397 -1.6935512351987556 -0.17322701936604967 -0.39228655312846783 1.5326604106754711 0.57655748942144125 -1.024277133639949 -0.68450100158143867 1.055515289840337 0.91968320755655553 -1.2794124178681012 -1.8129323416840961 0.16952453489577668 0.5722738429093327
leaf_weight=9050 193 1267 11630 52728 53392 213319 2515 9239 21921 3358 79739 75969 151471 26525 31302 8920 11910 21766 146449 25543 31008 1523 7049 7385 6969 1495 10377 40196 38913 22352
leaf_count=9050 193 1267 11630 52728 53392 213319 2515 9239 21921 3358 79739 75969 151471 26525 31302 8920 11910 21766 146449 25543 31008 1523 7049 7385 6969 1495 10377 40196 38913 22352
internal_value=0 -0.332946 -1.40984 -0.0628521 1.59879 -0.121908 0.224597 1.80506 1.35108 -1.17119 -0.22601 -1.22416 -0.0497085 1.17583 1.73897 0.500079 2.06972 -1.79889 -0.203268 -0.417875 1.46767 0.946763 -0.879487 -0.784483 1.02549 0.564157 -1.38509 -1.771 0.118535 0.594053
internal_weight=0 931491 186780 744711 193982 617788 126923 105843 88139 115768 252998 97976 364790 35210 84694 35282 21149 71012 226188 26810 52929 8685 17792 10743 7162 26362 22007 61962 91641 23847
internal_count=1125473 931491 186780 744711 193982 617788 126923 105843 88139 115768 252998 97976 364790 35210 84694 35282 21149 71012 226188 26810 52929 8685 17792 10743 7162 26362 22007 61962 91641 23847
is_linear=0
shrinkage=0.1


Tree=20
num_leaves=31
num_cat=0
split_feature=1 1 1 1 1 1 1 1 1 1 1 1 1 1 1 0 1 1 1 0 0 0 0 0 0 0 1 0 0 1
split_gain=4.85271e+07 2.19457e+07 1.40469e+06 1.02437e+06 805516 370904 308999 188013 144899 110437 79881.4 72744.2 59539.2 47894.9 42539 34679.8 34454.9 31845.2 28617 27384.8 24489.7 20543 19824 19134.4 18096.3 17763.8 15712.9 15628.4 15744 14684.8
threshold=55.450150000000008 -43.210334999999993 -106.63874499999999 13.733450000000001 126.60568500000001 -1.0000000180025095e-35 29.241775000000001 144.61744000000002 -69.877334999999988 103.67829500000001 -14.681559999999999 5.8883850000000004 -80.433604999999986 153.50573000000003 115.65361500000002 29.690440000000006 136.80997500000004 -123.01830999999999 -5.2729549999999987 22.853050000000003 -20.932664999999997 1.0000000180025095e-35 -1.0000000180025095e-35 -32.044264999999989 -23.928224999999994 30.389635000000002 22.904445000000006 54.202020000000005 24.326365000000003 -76.403639999999982
decision_type=2 2 2 2 2 2 2 2 2 2 2 2 2 2 2 2 2 2 2 2 2 2 2 2 2 2 2 2 2 2
left_child=1 2 17 5 9 10 26 16 12 19 20 -7 25 -9 -11 24 -6 27 -12 21 -3 -2 23 -10 -8 -4 -5 28 -1 -14
right_child=4 3 8 6 7 11 15 13 22 14 18 -13 29 -15 -16 -17 -18 -19 -20 -21 -22 -23 -24 -25 -26 -27 -28 -29 -30 -31
leaf_value=-2.1181014407107273 -0.052906749347331 -0.84036915590185401 -1.3314505982255485 0.076327351043327385 1.4387389632568013 -0.097737261478758233 0.25261604132756565 1.7036355615543597 -0.90365027990242008 1.16564245281886 -0.24829732228448106 -0.011952756422477721 -1.0963841395984903 1.9402117848433944 1.3331831655724773 0.27963221003530619 1.57089208254123 -1.5737436782332854 -0.16919560780666484 0.51890177341644028 -0.38456569441649258 0.98755008334133076 -0.9218494166345792 -0.61590460261280022 0.53464806390397523 -1.1514711891443408 0.16322209596396695 -3.3434681351912228 -1.6962345888775514 -1.0069671809723155
leaf_weight=923 193 1267 11630 65422 35230 190333 2515 26373 3365 35256 71101 205664 44879 12668 26580 8920 44837 48746 128198 1523 16927 11322 7049 7378 23847 10377 30517 59 21284 31090
leaf_count=923 193 1267 11630 65422 35230 190333 2515 26373 3365 35256 71101 205664 44879 12668 26580 8920 44837 48746 128198 1523 16927 11322 7049 7378 23847 10377 30517 59 21284 31090
internal_value=0 -0.299651 -1.26885 -0.0565669 1.43891 -0.110808 0.197026 1.60048 -1.05407 1.18189 -0.215727 -0.0531844 -1.10175 1.7804 1.23766 0.450071 1.51274 -1.619 -0.197416 0.917404 -0.416307 0.970111 -0.791538 -0.706034 0.507742 -1.24658 0.103967 -1.71809 -1.71377 -1.05979
internal_weight=0 931491 186780 744711 193982 613490 131221 119108 115768 74874 217493 395997 97976 39041 61836 35282 80067 71012 199299 13038 18194 11515 17792 10743 26362 22007 95939 22266 22207 75969
internal_count=1125473 931491 186780 744711 193982 613490 131221 119108 115768 74874 217493 395997 97976 39041 61836 35282 80067 71012 199299 13038 18194 11515 17792 10743 26362 22007 95939 22266 22207 75969
is_linear=0
shrinkage=0.1


Tree=21
num_leaves=31
num_cat=0
split_feature=1 1 1 1 1 1 1 1 1 1 1 1 1 1 1 1 0 1 0 0 1 0 0 0 0 0 0 0 0 1
split_gain=3.93129e+07 1.73817e+07 1.15519e+06 1.1378e+06 644320 316203 234802 213292 133023 118312 52363.2 52326 44174.5 43880.3 33567.8 32467.8 31404.8 26280.9 21274.5 17485.2 16901.3 14388.7 14337 14325.3 37773.6 14207.9 13789.5 13215.2 11382.3 17377.3
threshold=54.85419000000001 -43.210334999999993 115.75036500000002 -106.63874499999999 4.880935 100.61114500000001 24.025750000000006 141.11070000000004 -5.6414149999999994 -72.021644999999992 12.115655000000002 135.24073000000001 -80.433604999999986 153.50573000000003 -16.375124999999997 0.35689000000000004 29.690440000000006 -122.52333499999999 -1.0000000180025095e-35 -32.044264999999989 103.67829500000001 30.389635000000002 -20.932664999999997 24.326365000000003 10.290410000000001 -32.044264999999989 24.326365000000003 54.202020000000005 -23.928224999999994 51.56116500000001
decision_type=2 2 2 2 2 2 2 2 2 2 2 2 2 2 2 2 2 2 2 2 2 2 2 2 2 2 2 2 2 2
left_child=1 3 5 17 8 23 10 11 14 12 -6 -4 21 -9 22 -10 28 26 19 -11 -7 -5 -3 24 -2 -15 -1 -28 -8 -30
right_child=2 4 7 9 6 20 16 13 15 18 -12 -13 -14 25 -16 -17 -18 -19 -20 -21 -22 -23 -24 -25 -26 -27 27 -29 29 -31
leaf_value=-1.9062913222018456 0.55972044560533674 -0.75633220010229052 1.2490398745502063 -1.1983055464481345 -0.022165630535518076 0.90492691994267715 0.22381845235249345 1.5249174200939066 -0.15162828891482771 -0.82461889630182528 0.062924975749529682 1.3953406089752656 -0.95989351170090476 1.8108248840199779 -0.23891821409755465 -0.087610873676426074 0.21491663074246301 -1.4029934282812144 -0.8373786696440807 -0.55431416940805422 1.0594928793462144 -1.0363240377468974 -0.39311335733375952 0.4933430402591511 1.3466249859079402 1.5726667634965099 -1.5110506514440747 -3.0091210219819668 0.77425006789905926 0.40552148352416229
leaf_weight=923 3231 1267 48312 11630 174795 8602 2571 30636 149871 3542 123361 49490 71461 9230 71595 168066 21700 39647 11380 7378 39838 10377 7638 13995 752 3438 30383 59 1495 8810
leaf_count=923 3231 1267 48312 11630 174795 8602 2571 30636 149871 3542 123361 49490 71461 9230 71595 168066 21700 39647 11380 7378 39838 10377 7638 13995 752 3438 30383 59 1495 8810
internal_value=0 -0.281012 1.24301 -1.14197 -0.0610775 0.899119 0.0416471 1.40488 -0.146862 -0.948665 0.0130403 1.32307 -0.998044 1.58965 -0.261692 -0.117788 0.288329 -1.4571 -0.7417 -0.64199 1.03204 -1.12193 -0.444792 0.540964 0.70829 1.74619 -1.5255 -1.51395 0.412052 0.459015
internal_weight=0 917949 207524 186780 731169 66418 332732 141106 398437 115768 298156 97802 93468 43304 80500 317937 34576 71012 22300 10920 48440 22007 8905 17978 3983 12668 31365 30442 12876 10305
internal_count=1125473 917949 207524 186780 731169 66418 332732 141106 398437 115768 298156 97802 93468 43304 80500 317937 34576 71012 22300 10920 48440 22007 8905 17978 3983 12668 31365 30442 12876 10305
is_linear=0
shrinkage=0.1


Tree=22
num_leaves=31
num_cat=0
split_feature=1 1 1 1 1 1 1 1 1 1 1 1 1 0 1 1 1 1 0 1 0 0 0 0 0 0 0 0 3 1
split_gain=3.18435e+07 1.40792e+07 937492 921616 526099 272336 160623 156045 150760 97229 42785.6 35543 35430.7 30191.6 28272.2 27278.7 24605.2 22839.1 19895 17157.9 15742 14231.2 13475.4 12143.9 11654.8 11603.5 30596.6 11508.4 10128.5 12200.9
threshold=54.85419000000001 -43.210334999999993 116.72883000000002 -106.63874499999999 9.106695000000002 100.61114500000001 141.11070000000004 25.197565000000001 -2.4446499999999998 -74.518889999999985 -14.681559999999999 153.50573000000003 135.24073000000001 1.0000000180025095e-35 15.685990000000002 -80.433604999999986 2.6823850000000005 -123.89964499999999 29.690440000000006 104.07732500000002 -20.932664999999997 -31.543984999999996 34.410205000000012 1.3156800000000002 30.389635000000002 24.326365000000003 10.290410000000001 -32.044264999999989 -0.99155801187845027 -93.936534999999978
decision_type=2 2 2 2 2 2 2 2 2 2 2 2 2 2 2 2 2 2 2 2 2 2 2 2 2 2 2 2 2 2
left_child=1 3 5 17 8 25 12 14 10 15 20 -8 -4 21 -6 24 -10 -1 -9 23 -3 -11 -19 -7 28 26 -2 -13 29 -5
right_child=2 4 6 9 7 19 11 18 16 13 -12 27 -14 -15 -16 -17 -18 22 -20 -21 -22 -23 -24 -25 -26 -27 -28 -29 -30 -31
leaf_value=-1.4597848195450083 0.50374839644762648 -0.68069899979781812 1.1325135194543925 -1.01771391137441 0.011526849884008377 0.92130157951923164 1.3724256529145304 0.37107562038371539 -0.10950101752773822 -0.74048257336638801 -0.17753459183829987 1.629742374533822 1.2558065340084896 -0.77790681116617855 0.091782366092493406 -0.87901079800590498 -0.053971822288498297 -1.2263447599354929 0.20682619075404093 1.0052155925846793 -0.31525953168696436 -0.49877536939163181 -1.3240353689417697 0.76557033170680377 -0.93269163691677015 0.44400874866677764 1.2119624529747253 1.4154001466752208 -1.0458152964519909 -1.6387796334978
leaf_weight=9050 3231 1267 44057 600 155923 24479 30636 12866 136896 3639 137607 9230 49490 24627 61093 58127 191312 21766 17278 21921 16927 7368 40196 6295 10377 13995 752 3438 10361 669
leaf_count=9050 3231 1267 44057 600 155923 24479 30636 12866 136896 3639 137607 9230 49490 24627 61093 58127 191312 21766 17278 21921 16927 7368 40196 6295 10377 13995 752 3438 10361 669
internal_value=0 -0.252911 1.11871 -1.02777 -0.0549698 0.822946 1.27145 0.0637335 -0.115586 -0.853799 -0.19659 1.43068 1.19774 -0.716369 0.0341199 -0.914911 -0.0771331 -1.31139 0.276931 0.937606 -0.340708 -0.578686 -1.28972 0.889446 -1.00973 0.486868 0.637461 1.57157 -1.07847 -1.34513
internal_weight=0 917949 207524 186780 731169 70673 136851 247160 484009 115768 155801 43304 93547 35634 217016 80134 328208 71012 30144 52695 18194 11007 61962 30774 22007 17978 3983 12668 11630 1269
internal_count=1125473 917949 207524 186780 731169 70673 136851 247160 484009 115768 155801 43304 93547 35634 217016 80134 328208 71012 30144 52695 18194 11007 61962 30774 22007 17978 3983 12668 11630 1269
is_linear=0
shrinkage=0.1


Tree=23
num_leaves=31
num_cat=0
split_feature=1 1 1 1 1 1 1 1 1 1 1 1 1 1 0 1 0 1 1 0 0 0 0 0 0 0 0 0 1 1
split_gain=2.57932e+07 1.14042e+07 761112 746509 427166 191277 153171 148720 97749.2 79711 48328.9 32015.5 28796.6 26958.5 20346.1 18499.6 17340.6 17151.3 16853.3 13475.5 12743.2 11240.4 11137.8 9403.42 24868.6 9321.81 9255.86 9210.21 14075.6 9224.81
threshold=54.85419000000001 -43.210334999999993 115.65361500000002 -106.63874499999999 7.1621450000000006 100.61114500000001 139.56881000000004 24.025750000000006 -3.8858549999999998 -74.010344999999987 153.50573000000003 13.156750000000001 -15.419154999999998 -79.937784999999977 29.690440000000006 -123.89964499999999 1.0000000180025095e-35 2.1463750000000004 126.82578500000001 -20.932664999999997 -35.045174999999993 26.075085000000005 7.0418900000000013 22.853050000000003 10.290410000000001 -32.044264999999989 54.202020000000005 -23.928224999999994 51.56116500000001 31.220410000000005
decision_type=2 2 2 2 2 2 2 2 2 2 2 2 2 2 2 2 2 2 2 2 2 2 2 2 2 2 2 2 2 2
left_child=1 3 5 15 8 23 18 11 12 13 19 -6 22 -5 27 26 20 -10 -4 -8 -11 -17 -3 24 -2 -12 -1 29 -29 -9
right_child=2 4 6 9 7 -7 10 14 17 16 25 -13 -14 -15 -16 21 -18 -19 -20 -21 -22 -23 -24 -25 -26 -27 -28 28 -30 -31
leaf_value=-1.3056140524223854 0.45337355302900995 -0.57489167051588808 0.97604395525135745 -0.8981254546301195 -0.010210854875142214 0.82548936062654121 1.2511132233403714 0.33632117370989817 -0.10904131097955089 -0.83146697845442796 1.4667681823598215 0.060929036038872633 -0.17575548017777312 -0.77794418159282896 0.17508670191982201 -1.0278433968425522 -0.68433060323964046 -0.061291061694671037 1.07214846713763 1.1542433805659778 -0.48340036280891657 -1.174396383556362 -0.29697461196441183 0.39961091701308349 1.0925523763020835 1.2738600969175879 -2.5622305465956869 0.65971750182850308 0.32786175902937109 -0.044309706553717229
leaf_weight=8991 3231 1638 31154 26630 183275 43858 26569 1410 155000 1178 9230 96606 101873 62401 21700 5771 15737 146149 44045 31252 9822 56191 12052 13997 750 3438 59 1495 8810 1161
leaf_count=8991 3231 1638 31154 26630 183275 43858 26569 1410 155000 1178 9230 96606 101873 62401 21700 5771 15737 146149 44045 31252 9822 56191 12052 13997 750 3438 59 1495 8810 1161
internal_value=0 -0.22762 1.00684 -0.924994 -0.0494728 0.712885 1.13161 0.0385159 -0.11587 -0.768419 1.23751 0.0143444 -0.194055 -0.813892 0.234177 -1.18025 -0.617 -0.0858679 1.03233 1.19876 -0.520675 -1.16075 -0.330227 0.438181 0.573792 1.41441 -1.31381 0.333761 0.376006 0.164438
internal_weight=0 917949 207524 186780 731169 61836 145688 314457 416712 115768 70489 279881 115563 89031 34576 71012 26737 301149 75199 57821 11000 61962 13690 17978 3981 12668 9050 12876 10305 2571
internal_count=1125473 917949 207524 186780 731169 61836 145688 314457 416712 115768 70489 279881 115563 89031 34576 71012 26737 301149 75199 57821 11000 61962 13690 17978 3981 12668 9050 12876 10305 2571
is_linear=0
shrinkage=0.1


Tree=24
num_leaves=31
num_cat=0
split_feature=1 1 1 1 1 1 1 1 1 1 1 1 1 0 1 1 0 1 0 1 1 3 4 0 1 0 0 0 1 0
split_gain=2.08974e+07 9.16754e+06 717784 608163 322857 189876 124068 103849 66728.9 55528.4 39707.8 34234.4 23716 19563.4 19364.6 16752.9 16164.1 14259.5 13729.2 13068.7 10419.6 10407.3 22069.9 9398.85 9063.31 8978.25 8057.6 20317.6 6981.32 6900.79
threshold=54.667410000000011 -43.210334999999993 115.65361500000002 -93.936534999999978 4.2115350000000005 100.61114500000001 139.56881000000004 18.414915000000004 -7.6078849999999987 -63.463889999999999 153.16471500000003 -118.97020499999998 25.203635000000002 43.625485000000005 10.767805000000001 -1.15526 -1.0000000180025095e-35 129.51477000000003 -32.044264999999989 -79.478114999999988 -125.05924999999998 -0.99155801187845027 -0.12100309111989711 30.389635000000002 103.67829500000001 -35.045174999999993 22.853050000000003 10.290410000000001 -15.419154999999998 54.356890000000007
decision_type=2 2 2 2 2 2 2 2 2 2 2 2 2 2 2 2 2 2 2 2 2 2 2 2 2 2 2 2 2 2
left_child=1 3 5 11 8 26 17 14 16 13 -8 20 -9 19 -6 -10 -3 -4 -12 21 29 22 -5 -13 -7 -11 27 -2 -18 -1
right_child=2 4 6 9 7 24 10 12 15 25 18 23 -14 -15 -16 -17 28 -19 -20 -21 -22 -23 -24 -25 -26 -27 -28 -29 -30 -31
leaf_value=-1.219780419650653 0.40682448026563123 -0.5174025031773235 0.89262953928229705 -1.4883097592989605 -0.028205279833397247 0.65090905500827523 1.0646229888472774 0.090808991448333362 -0.12308244612003139 -0.74832028019003227 1.3198794813122066 -0.89618494149224659 0.21753112350361553 -0.43806789619253084 0.023774774037550808 -0.074872187376765417 -0.2672771510846953 0.9810934813974227 1.157436872301334 -0.68133468686506249 -1.0746183751694909 -0.74605227411272534 -0.75685395688721635 -1.014903887694476 0.76539485376520122 -0.45905940593268824 0.35774717837635017 0.98329706281026208 -0.18233212586018821 -2.4010734901428226
leaf_weight=4512 3308 1638 44197 600 169557 8602 49340 47803 119616 1178 9239 14783 21371 2692 124144 181374 12052 31002 11910 55599 48273 33582 1320 12149 35256 12042 18473 750 49061 50
leaf_count=4512 3308 1638 44197 600 169557 8602 49340 47803 119616 1178 9239 14783 21371 2692 124144 181374 12052 31002 11910 55599 48273 33582 1320 12149 35256 12042 18473 750 49061 50
internal_value=0 -0.207633 0.894256 -0.832495 -0.0470093 0.621726 1.01845 0.0197283 -0.113588 -0.676705 1.11376 -1.0415 0.129959 -0.703749 -0.00623392 -0.0940314 -0.207393 0.9291 1.2284 -0.7116 -1.08827 -0.758998 -0.985434 -0.949739 0.74294 -0.484835 0.385776 0.513368 -0.199084 -1.23273
internal_weight=0 913396 212077 186780 726616 66389 145688 362875 363741 107013 70489 79767 69174 93793 293701 300990 62751 75199 21149 91101 52835 35502 1920 26932 43858 13220 22531 4058 61113 4562
internal_count=1125473 913396 212077 186780 726616 66389 145688 362875 363741 107013 70489 79767 69174 93793 293701 300990 62751 75199 21149 91101 52835 35502 1920 26932 43858 13220 22531 4058 61113 4562
is_linear=0
shrinkage=0.1


Tree=25
num_leaves=31
num_cat=0
split_feature=1 1 1 1 1 1 1 1 1 1 1 1 0 0 1 1 1 1 0 1 0 0 3 4 0 0 0 0 0 0
split_gain=1.69269e+07 7.42571e+06 582109 492612 262349 133529 115059 77178 60739.3 44978 36840.7 27729.9 20634.1 15846.4 15760.5 15383.4 15018.9 13479.2 11120.7 10810.7 9512.86 8474.73 7666.93 18409.7 7613.07 7298.98 7272.39 6526.66 16457.2 6264.06
threshold=54.667410000000011 -43.210334999999993 104.07732500000002 -93.936534999999978 4.6850900000000015 136.99076500000004 100.61114500000001 19.257570000000005 -5.6414149999999994 -63.463889999999999 153.16471500000003 -118.97020499999998 25.334060000000004 43.625485000000005 29.241775000000001 10.767805000000001 -16.375124999999997 -0.32433499999999998 -32.044264999999989 -76.592434999999981 24.326365000000003 1.3156800000000002 -0.99155801187845027 -0.12100309111989711 30.389635000000002 53.533665000000006 -35.045174999999993 22.853050000000003 10.290410000000001 -20.932664999999997
decision_type=2 2 2 2 2 2 2 2 2 2 2 2 2 2 2 2 2 2 2 2 2 2 2 2 2 2 2 2 2 2
left_child=1 3 6 11 8 12 27 15 16 13 -7 20 -4 19 -9 -6 29 -10 -12 22 -1 -8 23 -5 -13 -22 -11 28 -2 -3
right_child=2 4 5 9 7 10 21 14 17 26 18 24 -14 -15 -16 -17 -18 -19 -20 -21 25 -23 -24 -25 -26 -27 -28 -29 -30 -31
leaf_value=-1.2950631528441461 0.36614202544939994 -0.50339968838650317 0.74083584975555439 -1.3286496011690163 -0.02201746422925021 0.95147074485948568 0.67122464775479096 0.094809865078638839 -0.10487153331950301 -0.6734882506733233 1.1878915281261715 -0.80656644328879323 0.84718384534012336 -0.39426110488698884 0.20978891895636226 0.025158415272610674 -0.15976529275707482 -0.061843326707024318 1.0416932080154355 -0.60989863237907527 -0.97242079210744115 0.54112976324946471 -0.66916462330490867 -0.6723233700464093 -0.91341350995637682 -2.0410061016678811 -0.41315344996754072 0.32197244840521899 0.88496742299397801 -0.26331368313937559
leaf_weight=938 3308 1267 28423 609 139282 58255 24479 38913 114953 1178 9239 14783 50945 2692 17187 137218 71595 198563 11910 51007 51833 6295 38052 1433 12149 64 12042 18473 750 7638
leaf_count=938 3308 1267 28423 609 139282 58255 24479 38913 114953 1178 9239 14783 50945 2692 17187 137218 71595 198563 11910 51007 51833 6295 38052 1433 12149 64 12042 18473 750 7638
internal_value=0 -0.18687 0.80483 -0.749245 -0.0423084 0.900826 0.518901 0.0230924 -0.097515 -0.609035 0.992512 -0.937348 0.809099 -0.633374 0.130035 0.0013944 -0.174999 -0.0776199 1.10556 -0.64044 -0.979443 0.644613 -0.679295 -0.868064 -0.854765 -0.973739 -0.436351 0.347198 0.462031 -0.297473
internal_weight=0 913396 212077 186780 726616 158772 53305 332600 394016 107013 79404 79767 79368 93793 56100 276500 80500 313516 21149 91101 52835 30774 40094 2042 26932 51897 13220 22531 4058 8905
internal_count=1125473 913396 212077 186780 726616 158772 53305 332600 394016 107013 79404 79767 79368 93793 56100 276500 80500 313516 21149 91101 52835 30774 40094 2042 26932 51897 13220 22531 4058 8905
is_linear=0
shrinkage=0.1


Tree=26
num_leaves=31
num_cat=0
split_feature=1 1 1 1 1 1 1 1 1 1 1 0 1 1 0 1 1 1 0 0 0 1 0 0 1 3 4 1 0 0
split_gain=1.37108e+07 6.01482e+06 472577 399597 213960 114628 91072.1 72145 41780.4 39552.2 20581.5 18171.5 18005.8 16702.5 13615.7 13067.3 12817.2 10374.6 10123.1 9106.09 8378.09 7748.77 5725.63 5603.1 5583.86 5569.63 8185.53 7270.7 5551.82 5353.03
threshold=54.667410000000011 -43.210334999999993 114.11485 -99.545079999999999 3.2743850000000001 100.61114500000001 139.89209500000001 17.857975000000003 -8.7467049999999986 -74.518889999999985 129.51477000000003 18.609635000000001 153.50573000000003 25.203635000000002 1.0000000180025095e-35 10.271440000000002 -123.01830999999999 -1.3926949999999998 7.0418900000000013 24.326365000000003 -32.044264999999989 -79.732719999999986 59.820785000000008 25.334060000000004 -57.109699999999997 -0.99155801187845027 -0.12100309111989711 -93.936534999999978 54.202020000000005 -23.928224999999994
decision_type=2 2 2 2 2 2 2 2 2 2 2 2 2 2 2 2 2 2 2 2 2 2 2 2 2 2 2 2 2 2
left_child=1 3 5 11 8 -2 10 15 18 21 23 -1 -8 -9 20 -6 19 -10 -3 -13 24 25 -15 -4 -11 26 27 -5 -21 -14
right_child=2 4 6 9 7 -7 12 13 17 14 -12 16 29 22 -16 -17 -18 -19 -20 28 -22 -23 -24 -25 -26 -27 -28 -29 -30 -31
leaf_value=-0.56756931641540675 0.31247829589781956 -0.42078543406921431 0.67552927987609612 -0.60368206631053578 -0.026234326068325611 0.5949320313143438 0.89367949599501528 0.072102148576452627 -0.1020111820814938 -0.40768747107242087 0.80896718945335988 -1.2430068499542948 1.0268679427979743 0.1889567054187784 -0.50841127549096055 0.015248181033453928 -0.83295112343539479 -0.063890546811632545 -0.16831131929869589 -0.90843098460227756 -0.31352559030257776 -0.56817721665604526 -0.047965630284663177 0.74493200638220847 -0.66766149868684666 -0.62159126242839757 -0.63073705533611468 -1.2272903825730495 -1.8798193753775907 2.1713574432745211
leaf_weight=2180 22531 1638 19446 275 169597 39658 39783 52218 124161 2347 49040 860 12627 20297 24627 137506 51024 167980 52145 21284 7385 44684 1074 28951 1275 28881 1315 584 59 41
leaf_count=2180 22531 1638 19446 275 169597 39658 39783 52218 124161 2347 49040 860 12627 20297 24627 137506 51024 167980 52145 21284 7385 44684 1074 28951 1275 28881 1315 584 59 41
internal_value=0 -0.168183 0.724347 -0.674321 -0.0380776 0.492599 0.8205 0.0136494 -0.0950035 -0.553967 0.76331 -0.852079 0.926742 0.10258 -0.467086 -0.00766045 -0.860549 -0.080092 -0.176001 -0.923972 -0.374625 -0.594843 0.17705 0.717046 -0.499202 -0.63321 -0.787566 -1.02765 -0.911116 1.03057
internal_weight=0 913396 212077 186780 726616 62189 149888 380692 345924 111373 97437 75407 52451 73589 35634 307103 73227 292141 53783 22203 11007 75739 21371 48397 3622 31055 2174 859 21343 12668
internal_count=1125473 913396 212077 186780 726616 62189 149888 380692 345924 111373 97437 75407 52451 73589 35634 307103 73227 292141 53783 22203 11007 75739 21371 48397 3622 31055 2174 859 21343 12668
is_linear=0
shrinkage=0.1


Tree=27
num_leaves=31
num_cat=0
split_feature=1 1 1 1 1 1 1 0 0 1 1 1 1 1 1 0 1 0 1 1 0 0 0 1 1 7 1 0 0 0
split_gain=1.11083e+07 5.01952e+06 324973 244760 191518 97535.3 57674.3 50299.4 29766.6 27702.7 24984.2 18896.2 13834.2 11461.7 11061.3 9841.7 9164.53 8815.91 7417.56 7068.49 6781.63 6776.99 6696.16 11660.4 7923.51 6844.95 6452.78 6042.17 5634.74 4947.66
threshold=55.450150000000008 -43.210334999999993 -93.936534999999978 15.405305000000002 126.22573500000001 2.1673900000000006 29.241775000000001 31.905245000000004 -20.932664999999997 -9.8083449999999974 100.88128500000002 -118.97020499999998 9.2730550000000012 -76.403639999999982 174.77269500000003 1.3156800000000002 104.07732500000002 29.690440000000006 -3.4173199999999997 136.80997500000004 -23.928224999999994 -20.932664999999997 -23.928224999999994 51.56116500000001 31.220410000000005 1705960679.5000002 -123.89964499999999 22.853050000000003 44.406315000000006 30.389635000000002
decision_type=2 2 2 2 2 2 2 2 2 2 2 2 2 2 2 2 2 2 2 2 2 2 2 2 2 2 2 2 2 2
left_child=1 2 11 5 10 9 -5 14 20 21 15 26 -7 -10 -6 -2 -12 22 -11 -9 -4 -3 24 25 -8 -24 -1 -17 -15 -13
right_child=4 3 8 6 7 12 17 19 13 18 16 29 -14 28 -16 27 -18 -19 -20 -21 -22 -23 23 -25 -26 -27 -28 -29 -30 -31
leaf_value=-0.87128691964913474 -0.30784479151121008 -0.41098116295678278 -0.37785799270555748 0.060951180699692423 0.83245792137312302 -0.032950900648032404 0.25453646271056229 0.68563093449206036 -0.53876354260597548 -0.10578587588442433 0.53493894196185832 -0.65264139302664081 0.006905836882990248 -0.47930804552131834 1.0031919050581022 0.4537528418728296 0.61267821700648506 0.13035836127237418 -0.070158425288661661 0.74553863068506443 -0.18545965363577696 -0.17486800264097649 -0.12581980511858745 0.24365207871711583 -0.10150640717515856 0.60170765487400035 -0.77852975190128249 0.23388261741035798 -0.33573833826982086 -0.73877702625173247
leaf_weight=9050 193 1267 8696 74092 40396 213631 1354 39397 58129 97430 26525 14783 147018 34901 4188 6969 35407 8920 146017 39384 2321 29974 143 22352 1161 1352 43785 1523 2966 12149
leaf_count=9050 193 1267 8696 74092 40396 213631 1354 39397 58129 97430 26525 14783 147018 34901 4188 6969 35407 8920 146017 39384 2321 29974 143 22352 1161 1352 43785 1523 2966 12149
internal_value=0 -0.143367 -0.606889 -0.0271113 0.688439 -0.0508979 0.111061 0.763616 -0.493008 -0.0957932 0.557109 -0.759668 -0.0167034 -0.510875 0.848496 0.398272 0.579383 0.216292 -0.0844169 0.71558 -0.337325 -0.184444 0.245369 0.261736 0.0901763 0.532118 -0.794418 0.41432 -0.468063 -0.691497
internal_weight=0 931491 186780 744711 193982 635337 109374 123365 107013 274688 70617 79767 360649 95996 44584 8685 61932 35282 243447 78781 11017 31241 26362 23847 2515 1495 52835 8492 37867 26932
internal_count=1125473 931491 186780 744711 193982 635337 109374 123365 107013 274688 70617 79767 360649 95996 44584 8685 61932 35282 243447 78781 11017 31241 26362 23847 2515 1495 52835 8492 37867 26932
is_linear=0
shrinkage=0.1


Tree=28
num_leaves=31
num_cat=0
split_feature=1 1 1 1 1 1 1 1 1 1 1 1 0 1 1 1 1 1 1 5 0 1 0 3 4 1 0 0 0 0
split_gain=9.00004e+06 3.94569e+06 310655 263229 141925 79532 56522.7 46498.2 28913.7 24274.9 17530.4 15305.9 10159.2 9985.43 8695.1 8547.93 7218.13 6007.08 6260.79 5957.51 5728.19 5524.52 5314.53 4981.45 12107.3 4801.62 4729.96 4571.23 4362.92 12669.8
threshold=54.667410000000011 -43.210334999999993 115.65361500000002 -93.936534999999978 3.7543900000000003 100.61114500000001 144.90580500000002 18.414915000000004 -6.2189949999999987 -63.463889999999999 134.26661500000003 -118.97020499999998 43.625485000000005 25.203635000000002 -16.375124999999997 10.377305000000002 174.77269500000003 -76.592434999999981 -69.877334999999988 -0.97988739209073461 24.326365000000003 -0.32433499999999998 20.380475000000004 -0.99155801187845027 -0.12100309111989711 103.67829500000001 51.195930000000011 -35.045174999999993 22.853050000000003 10.290410000000001
decision_type=2 2 2 2 2 2 2 2 2 2 2 2 2 2 2 2 2 2 2 2 2 2 2 2 2 2 2 2 2 2
left_child=1 3 5 11 8 28 10 15 14 12 -4 20 17 -9 -3 -6 19 23 -19 -8 22 -10 -1 24 -5 -7 -22 -11 29 -2
right_child=2 4 6 9 7 25 16 13 21 27 -12 -13 -14 -15 -16 -17 -18 18 -20 -21 26 -23 -24 -25 -26 -27 -28 -29 -30 -31
leaf_value=-0.1695180682035593 0.2646203481282548 -0.22541567542487712 0.58851212893494187 -1.0218850401234745 -0.019069603045257927 0.41903658341707345 0.99560263610380062 0.060846721930838579 -0.077622782230118509 -0.50485372643519344 0.66867969133634919 -0.62234738330668971 -0.27013204103061739 0.14307379475262613 -0.11980560036932522 0.014923842407768537 0.90287271103863509 -0.43762522555019756 -0.62357271437949324 0.75453655001355235 -0.70945595172497222 -0.049471152463396596 -1.0315775401093239 -0.48804298754647163 -0.48962965430035432 0.50236671762931895 -1.5440190525615918 -0.2984533765742261 0.23424271429868587 0.7198475364049276
leaf_weight=78 3308 8905 48426 609 174062 8602 1062 47803 123957 1178 62457 26932 2692 21371 62591 128643 4188 49127 1880 29555 51829 159284 860 38052 1433 35256 68 12042 18473 750
leaf_count=78 3308 8905 48426 609 174062 8602 1062 47803 123957 1178 62457 26932 2692 21371 62591 128643 4188 49127 1880 29555 51829 159284 860 38052 1433 35256 68 12042 18473 750
internal_value=0 -0.136261 0.586864 -0.5462 -0.0308844 0.407574 0.668565 0.0122804 -0.0761351 -0.443707 0.633668 -0.683702 -0.461588 0.0862504 -0.13296 -0.00462313 0.779741 -0.467245 -0.444479 0.762898 -0.714976 -0.0617914 -0.959892 -0.496208 -0.648368 0.486023 -0.710549 -0.316845 0.254867 0.348755
internal_weight=0 913396 212077 186780 726616 66389 145688 371879 354737 107013 110883 79767 93793 69174 71496 302705 34805 91101 51007 30617 52835 283241 938 40094 2042 43858 51897 13220 22531 4058
internal_count=1125473 913396 212077 186780 726616 66389 145688 371879 354737 107013 110883 79767 93793 69174 71496 302705 34805 91101 51007 30617 52835 283241 938 40094 2042 43858 51897 13220 22531 4058
is_linear=0
shrinkage=0.1


Tree=29
num_leaves=31
num_cat=0
split_feature=1 1 1 1 1 1 0 1 1 1 1 0 1 1 1 0 0 1 0 0 1 1 0 1 6 1 0 0 0 1
split_gain=7.2902e+06 3.22009e+06 220980 215022 124667 63555.6 38127.5 37850.8 35574.9 24241.3 10113.4 9050.72 8331.1 7951.13 7630.99 7536.87 7207.34 6203.85 6190.15 5788.3 8876.95 5707.77 5706.09 4755.29 4514.1 5955.05 4320.19 4214.51 4986.91 5482.27
threshold=54.85419000000001 -43.210334999999993 121.15047000000001 -106.63874499999999 8.8874150000000025 100.88128500000002 24.921835000000005 23.608205000000002 -3.8182149999999999 -76.073129999999978 -14.681559999999999 1.0000000180025095e-35 153.50573000000003 2.2311950000000005 -122.89882499999997 29.690440000000006 24.921835000000005 136.80997500000004 1.3156800000000002 26.462650000000004 51.56116500000001 13.744285000000001 -32.044264999999989 -80.433604999999986 0.66913060635885813 -46.300314999999991 24.326365000000003 -23.928224999999994 -32.044264999999989 172.82877500000004
decision_type=2 2 2 2 2 2 2 2 2 2 2 2 2 2 2 2 2 2 2 2 2 2 2 2 2 2 2 2 2 2
left_child=1 3 5 14 8 16 12 21 10 23 -3 22 -4 -10 26 19 18 -8 -2 -9 -21 -6 -11 -5 -24 -26 -1 28 29 -14
right_child=2 4 6 9 7 -7 17 15 13 11 -12 -13 27 -15 -16 -17 -18 -19 -20 20 -22 -23 24 -25 25 -27 -28 -29 -30 -31
leaf_value=-0.88354501778487915 0.12641621656969934 -0.17246046179677688 0.66103417853588187 -0.4824544216708761 0.0019019848627900345 0.45791151577299777 0.55067877337579696 0.15387573851230696 -0.057372666420132779 -0.37395764784756336 -0.09150772648680694 -0.37557517804365392 1.0381592476745012 -0.02727838121163343 -0.60324029921922262 0.089726463999709349 0.21257283086420764 0.60414908616485463 0.36708644302094096 0.47533497126307661 0.028880356772076926 0.036038999133477516 -0.15284256704117738 -0.42650950048706027 -0.12481186585051003 -0.4113972708951254 -0.6633371007042026 1.7690627167864545 0.64995920166114451 0.7675772671694987
leaf_weight=923 1261 18194 32024 22007 143027 52909 48292 10803 159281 3623 101675 33673 822 195611 44458 26014 13958 39404 7008 1429 647 74488 4211 49073 1118 2063 25631 41 3397 8408
leaf_count=923 1261 18194 32024 22007 143027 52909 48292 10803 159281 3623 101675 33673 822 195611 44458 26014 13958 39404 7008 1429 647 74488 4211 49073 1118 2063 25631 41 3397 8408
internal_value=0 -0.121012 0.535275 -0.49158 -0.0263485 0.3983 0.613015 0.0298388 -0.056694 -0.407547 -0.103795 -0.349836 0.688189 -0.0407852 -0.628575 0.1207 0.256402 0.574704 0.330385 0.183264 0.336194 0.0135922 -0.27115 -0.443831 -0.220762 -0.310673 -0.670991 0.756836 0.753549 0.791675
internal_weight=0 917949 207524 186780 731169 75136 132388 256408 474761 115768 119869 44688 44692 354892 71012 38893 22227 87696 8269 12879 2076 217515 11015 71080 7392 3181 26554 12668 12627 9230
internal_count=1125473 917949 207524 186780 731169 75136 132388 256408 474761 115768 119869 44688 44692 354892 71012 38893 22227 87696 8269 12879 2076 217515 11015 71080 7392 3181 26554 12668 12627 9230
is_linear=0
shrinkage=0.1


Tree=30
num_leaves=31
num_cat=0
split_feature=1 1 1 1 1 1 1 1 1 1 1 1 1 1 0 1 1 0 0 1 0 0 1 0 1 1 0 7 6 1
split_gain=5.90763e+06 2.58837e+06 207259 174168 94234.7 48161.8 36687 27272.7 22702.7 19852.2 12863.6 7943.15 6893.58 6271.33 5883.91 5560.05 5025.29 5000.71 6484.43 7190.33 4854.98 4637.89 4573.98 4556.65 4328.03 3959.29 3898.23 3752.5 3681.79 4850.49
threshold=54.667410000000011 -43.210334999999993 104.07732500000002 -106.63874499999999 4.880935 139.56881000000004 100.61114500000001 19.257570000000005 -5.2729549999999987 -74.518889999999985 153.16471500000003 121.15047000000001 -16.375124999999997 -123.23983499999999 1.0000000180025095e-35 11.713900000000001 -79.886704999999992 29.690440000000006 26.462650000000004 51.56116500000001 7.0418900000000013 -31.543984999999996 1.8436800000000002 -32.044264999999989 172.82877500000004 -57.109699999999997 -23.928224999999994 1705960679.5000002 0.66913060635885813 -46.300314999999991
decision_type=2 2 2 2 2 2 2 2 2 2 2 2 2 2 2 2 2 2 2 2 2 2 2 2 2 2 2 2 2 2
left_child=1 3 6 13 8 11 -2 15 12 16 -7 -4 -3 -1 21 -6 -5 18 -9 27 -8 25 -10 24 -12 -11 -25 -20 -23 -30
right_child=2 4 5 9 7 10 20 17 22 14 23 -13 -14 -15 -16 -17 -18 -19 19 -21 -22 28 -24 26 -26 -27 -28 -29 29 -31
leaf_value=-0.61693403862685847 0.20789955693096324 -0.18562806181581393 0.43759134088294432 -0.42580653254649942 -0.010302343537891882 0.56641803319649053 0.39474406137656853 0.09896201270751713 -0.055735411220593334 -0.25921062972986503 0.93004690886404551 0.50311873796966489 -0.092898568286815753 -0.5484742658401619 -0.33185959431473744 0.018795201998993181 -0.37443497785381902 0.065572239019482587 -0.1074074681599935 0.025992321026571948 0.29238230581751762 -0.13684860091706486 -0.031244331388437664 0.61539081106572402 0.69081952696068871 -0.47745600395165533 1.5921564799983328 0.47686568515914551 -0.11085661031063715 -0.3702575489091342
leaf_weight=17886 22531 8905 26384 31154 161325 49340 25091 6343 172404 2354 831 61899 80390 53126 24627 110754 48980 47681 120 647 5683 4197 136738 11869 8408 1285 41 1309 1108 2063
leaf_count=17886 22531 8905 26384 31154 161325 49340 25091 6343 172404 2354 831 61899 80390 53126 24627 110754 48980 47681 120 647 5683 4197 136738 11869 8408 1285 41 1309 1108 2063
internal_value=0 -0.110397 0.475469 -0.442422 -0.0250482 0.532749 0.304855 0.0146323 -0.0577317 -0.366793 0.594386 0.483535 -0.102146 -0.565717 -0.304693 0.00154227 -0.394407 0.0781178 0.14917 0.302575 0.375841 -0.243912 -0.0449027 0.659636 0.712337 -0.336277 0.618753 0.427801 -0.198293 -0.279619
internal_weight=0 913396 212077 186780 726616 158772 53305 328179 398437 115768 70489 88283 89295 71012 35634 272079 80134 56100 8419 2076 30774 11007 309142 21149 9239 3639 11910 1429 7368 3171
internal_count=1125473 913396 212077 186780 726616 158772 53305 328179 398437 115768 70489 88283 89295 71012 35634 272079 80134 56100 8419 2076 30774 11007 309142 21149 9239 3639 11910 1429 7368 3171
is_linear=0
shrinkage=0.1


Tree=31
num_leaves=31
num_cat=0
split_feature=1 1 1 1 1 1 0 1 1 0 1 1 0 1 1 1 1 0 1 1 0 0 0 0 0 3 4 1 0 0
split_gain=4.78518e+06 2.09658e+06 167880 141635 76563.2 39011.1 30700 25550.8 16304.6 13111.9 10569.2 9052.98 7539.18 6463.53 5929.36 5324.99 5022.29 4787.26 4505.12 4244.5 3929.26 3873.41 3861.71 3850.77 3826.86 3786.62 9871.65 3737.91 3724.22 3463.26
threshold=54.667410000000011 -43.210334999999993 104.07732500000002 -93.936534999999978 3.2743850000000001 139.56881000000004 22.853050000000003 17.857975000000003 -9.5024249999999988 -20.932664999999997 151.56578500000003 -122.36336499999999 1.0000000180025095e-35 126.22573500000001 25.203635000000002 -76.483144999999993 -2.7443649999999997 -20.932664999999997 10.305075000000002 55.450150000000008 24.326365000000003 -27.828979999999998 59.820785000000008 -35.045174999999993 54.356890000000007 -0.99155801187845027 -0.12100309111989711 172.82877500000004 7.0418900000000013 44.406315000000006
decision_type=2 2 2 2 2 2 2 2 2 2 2 2 2 2 2 2 2 2 2 2 2 2 2 2 2 2 2 2 2 2
left_child=1 3 6 11 8 13 12 18 17 21 -7 20 19 -4 -9 25 -10 -3 -6 -2 -1 -5 -16 27 -22 26 -11 -12 -14 -17
right_child=2 4 5 9 7 10 -8 14 16 15 23 -13 28 -15 22 29 -18 -19 -20 -21 24 -23 -24 -25 -26 -27 -28 -29 -30 -31
leaf_value=-0.73349714089318185 0.16999025514552688 -0.31153262536546428 0.40211592647470068 -0.29624125389284856 -0.014872042240279743 0.50547451988987058 0.17016081223308199 0.043164005360347549 -0.066795940054900749 -0.82388490270097536 0.8429890435802263 -0.46158518760495321 0.35772649396352618 0.4573236078711535 0.11547220305726941 -0.31615792592116676 -0.040017881841219655 -0.11360294768360349 0.0095704418883846443 -0.33695393572199528 -0.52396312663908051 -0.17375478771552566 -0.079101438851969838 0.55761176679887325 -1.3993257904052736 -0.35022102705500957 -0.35313367613488805 0.61830336199678826 0.27976367408491626 -0.20409462629583183
leaf_weight=923 1145 1267 35407 4130 174049 44632 18473 52218 106808 616 814 35671 25421 52876 20297 39281 203457 34392 133054 193 43123 6887 1074 16852 50 51524 1609 8191 8073 2966
leaf_count=923 1145 1267 35407 4130 174049 44632 18473 52218 106808 616 814 35671 25421 52876 20297 39281 203457 34392 133054 193 43123 6887 1074 16852 50 51524 1609 8191 8073 2966
internal_value=0 -0.0993571 0.427922 -0.39818 -0.0225434 0.479474 0.27437 0.00839956 -0.0565963 -0.322998 0.534948 -0.499042 0.329637 0.435182 0.0613233 -0.334856 -0.0492362 -0.120636 -0.00428221 0.096866 -0.529342 -0.219672 0.105694 0.585822 -0.524977 -0.355737 -0.483463 0.638614 0.338935 -0.30829
internal_weight=0 913396 212077 186780 726616 158772 53305 380692 345924 107013 70489 79767 34832 88283 73589 95996 310265 35659 307103 1338 44096 11017 21371 25857 43173 53749 2225 9005 33494 42247
internal_count=1125473 913396 212077 186780 726616 158772 53305 380692 345924 107013 70489 79767 34832 88283 73589 95996 310265 35659 307103 1338 44096 11017 21371 25857 43173 53749 2225 9005 33494 42247
is_linear=0
shrinkage=0.1


Tree=32
num_leaves=31
num_cat=0
split_feature=1 1 1 1 1 1 0 1 1 1 1 1 0 0 0 1 1 1 0 0 0 0 1 1 1 0 0 1 6 3
split_gain=3.876e+06 1.69823e+06 136153 115530 62345.7 29458.8 27766.7 17859.6 16002.1 13016.3 6306.02 6222.22 5249.38 4718.12 4613.49 4561.98 4560.64 4532.06 3459.59 3031.61 3157.56 3017.87 4301.65 2825.67 2808.18 6349.39 2806.57 2795.62 4420.51 2907.27
threshold=54.667410000000011 -43.210334999999993 106.87113500000002 -106.63874499999999 6.7216950000000013 139.75573500000004 22.853050000000003 23.604715000000002 -7.6078849999999987 -76.073129999999978 126.83000500000001 153.16471500000003 1.0000000180025095e-35 1.3156800000000002 7.0418900000000013 -123.54557499999999 1.2779750000000003 11.866935000000002 -23.928224999999994 -32.044264999999989 -23.928224999999994 31.132135000000002 -81.538044999999983 172.82877500000004 -46.300314999999991 -26.410979999999999 54.356890000000007 -81.284064999999984 -0.98321746822993583 -0.99155801187845027
decision_type=2 2 2 2 2 2 2 2 2 2 2 2 2 2 2 2 2 2 2 2 2 2 2 2 2 2 2 2 2 2
left_child=1 3 6 15 8 10 12 17 14 21 -4 -7 -2 18 -3 26 -10 -6 24 23 -21 27 -23 -13 25 -11 -1 28 -5 -30
right_child=2 4 5 9 7 11 -8 -9 16 13 -12 19 -14 -15 -16 -17 -18 -19 -20 20 -22 22 -24 -25 -26 -27 -28 -29 29 -31
